{
  "layers": [
    {
      "0": {},
      "1": {},
      "2": {},
      "3": {},
      "4": {},
      "5": {},
      "6": {},
      "7": {},
      "8": {},
      "9": {},
      "10": {},
      "11": {},
      "12": {},
      "13": {},
      "14": {},
      "15": {},
      "16": {},
      "17": {},
      "18": {},
      "19": {},
      "20": {},
      "21": {},
      "22": {},
      "23": {},
      "24": {},
      "25": {},
      "26": {},
      "27": {},
      "28": {},
      "29": {},
      "30": {},
      "31": {},
      "32": {},
      "33": {},
      "34": {},
      "35": {},
      "36": {},
      "37": {},
      "38": {},
      "39": {},
      "40": {},
      "41": {},
      "42": {},
      "43": {},
      "44": {},
      "45": {},
      "46": {},
      "47": {},
      "48": {},
      "49": {},
      "50": {},
      "51": {},
      "52": {},
      "53": {},
      "54": {},
      "55": {},
      "56": {},
      "57": {},
      "58": {},
      "59": {},
      "60": {},
      "61": {},
      "62": {},
      "63": {},
      "64": {},
      "65": {},
      "66": {},
      "67": {},
      "68": {},
      "69": {},
      "70": {},
      "71": {},
      "72": {},
      "73": {},
      "74": {},
      "75": {},
      "76": {},
      "77": {},
      "78": {},
      "79": {}
    },
    {
      "0": {
        "bias": -2.220044479236023,
        "weights": {
          "0": -2.343210536656975,
          "1": -0.47693653131901337,
          "2": -0.036978753340604104,
          "3": -1.090784239669469,
          "4": 0.19261888669542057,
          "5": 0.0010738414407483335,
          "6": 0.14344092288930765,
          "7": 0.15078748375338114,
          "8": 0.06454090342493457,
          "9": -0.13701910426765576,
          "10": -0.19244964142822862,
          "11": -0.05208056013792364,
          "12": -0.06892638394085912,
          "13": -0.03432747393134469,
          "14": 0.036745048695621035,
          "15": -0.0830949716870829,
          "16": 0.9799350972777672,
          "17": 0.059085473925007244,
          "18": -0.03037821146796167,
          "19": -1.605715908644086,
          "20": -2.6063825959681846,
          "21": -1.2883170872345726,
          "22": -0.19360145864761574,
          "23": -0.557967233384053,
          "24": 0.9418774771532856,
          "25": -0.09762705049100194,
          "26": -0.055523666193471884,
          "27": 0.041431577513653804,
          "28": 0.14025429585135848,
          "29": 0.0901761214116773,
          "30": -0.9850980000035475,
          "31": 3.749068915464435,
          "32": -2.3469315399149826,
          "33": -6.425166929033794,
          "34": -1.0852107225715677,
          "35": -3.2601852390135493,
          "36": -0.41930712192984576,
          "37": -1.4769585373940806,
          "38": -2.928774117189078,
          "39": -2.2686491511239346,
          "40": 1.157485472235953,
          "41": 3.0443364078450394,
          "42": -1.47463790410164,
          "43": -2.6226439505162817,
          "44": 2.063977078245441,
          "45": 1.2826153232064395,
          "46": -0.8427453929683704,
          "47": -1.6033054792170418,
          "48": -1.9113423198796327,
          "49": -0.5168750633028544,
          "50": -0.41704185947930383,
          "51": 0.05792249258188115,
          "52": -0.3233077218352196,
          "53": -1.093656840704492,
          "54": 0.42665821209035065,
          "55": 2.974378893138527,
          "56": 2.752771346729759,
          "57": 12.952768349123193,
          "58": 2.048082703776806,
          "59": 5.0250184975269,
          "60": -0.8370457816887762,
          "61": -4.029338294355317,
          "62": -2.156390025851798,
          "63": 2.1094221674018,
          "64": -0.26954696274668066,
          "65": -0.9187023049638443,
          "66": -1.4102270960814416,
          "67": -0.07323918687418153,
          "68": 3.141052249830507,
          "69": 1.5649812972277028,
          "70": 0.4173229087424305,
          "71": 1.3841577616675484,
          "72": 2.257000752235341,
          "73": -0.5423077622941972,
          "74": 1.0441799906479488,
          "75": -1.7446120092340849,
          "76": -0.29563017562573135,
          "77": -0.9445700167176453,
          "78": 1.8198116359147338,
          "79": 0.17682513546951972
        }
      },
      "1": {
        "bias": -2.054811069782771,
        "weights": {
          "0": -0.620360616031601,
          "1": -0.4738858964581768,
          "2": -0.04179372475127031,
          "3": -0.5951176689961091,
          "4": 0.13015287341262025,
          "5": -0.18291753896894647,
          "6": 0.04909565917720099,
          "7": 0.05472364129236729,
          "8": -0.19146647322841936,
          "9": 0.1637133380847397,
          "10": 0.006440050805205905,
          "11": 0.0703553698928518,
          "12": -0.1351054192678033,
          "13": 0.17996456505594294,
          "14": 0.18999185280155023,
          "15": -0.11158705648139816,
          "16": 0.40226420170225,
          "17": -0.030252979161455498,
          "18": -0.13786405556239378,
          "19": -0.3810161602958508,
          "20": -1.0352662645373398,
          "21": -0.3898150782134866,
          "22": -0.2131672983097237,
          "23": -0.16628127105172522,
          "24": 0.2027346760567782,
          "25": -0.14087026914445683,
          "26": 0.10264417097349432,
          "27": -0.09231882891466223,
          "28": -0.0631000552210891,
          "29": 0.1322047149921391,
          "30": -1.8397389469225904,
          "31": -0.6290120711228945,
          "32": -0.6956829364610473,
          "33": 0.22012700273544294,
          "34": 0.6871586976597519,
          "35": -1.636985286598271,
          "36": 0.7277573366906527,
          "37": -0.8213742628320921,
          "38": 0.4210605517954388,
          "39": -1.069867229539159,
          "40": 2.0820936905604084,
          "41": 1.5176004042900169,
          "42": -1.2244855938291792,
          "43": -0.7190788088625157,
          "44": 1.0038942597515352,
          "45": 0.4046675820285213,
          "46": -0.27048771860271786,
          "47": -0.8364429702592776,
          "48": -0.14589389088313084,
          "49": -1.0638284174751098,
          "50": -0.39064123265014494,
          "51": 0.16990892830320833,
          "52": 0.23876846796641055,
          "53": -0.4434376366657326,
          "54": 0.011060529507182226,
          "55": 0.4546222698630133,
          "56": 0.9902160605755123,
          "57": 4.950304578265616,
          "58": 1.2732359872226655,
          "59": 2.0027086767394824,
          "60": -0.7675759721272867,
          "61": -1.56528378205791,
          "62": -0.4942941618553003,
          "63": -0.3420490578574377,
          "64": 0.27267281438539054,
          "65": -0.7979740332497174,
          "66": -1.230303371678609,
          "67": -0.5021535871012229,
          "68": 1.3637158077201454,
          "69": -0.051406127273452014,
          "70": -0.2565686229809226,
          "71": 0.12073890121542608,
          "72": 0.4107731326193006,
          "73": -0.5173775922014877,
          "74": 0.7447365469749629,
          "75": -0.4878458088437934,
          "76": -0.08596693879434517,
          "77": -0.49604849039479276,
          "78": 0.6523447441527911,
          "79": 0.2891981434981381
        }
      },
      "2": {
        "bias": -1.9339649836396957,
        "weights": {
          "0": -0.21951100086581227,
          "1": -0.08994223978214985,
          "2": -0.3102654294492203,
          "3": -0.08710743248114564,
          "4": 0.13178942196643745,
          "5": 0.10688769902947913,
          "6": -0.10284554704537596,
          "7": -0.1555583059799263,
          "8": 0.06755079316835211,
          "9": -0.19729411333003918,
          "10": 0.10393798795198617,
          "11": -0.1760259537301269,
          "12": -0.03883433781378648,
          "13": -0.05284013577500818,
          "14": 0.12278222582509957,
          "15": -0.049282840793620414,
          "16": 0.23584934810149372,
          "17": 0.017183402466341282,
          "18": 0.048680118669895224,
          "19": -0.15824387637312998,
          "20": -0.5363104352004073,
          "21": -0.004022598584408985,
          "22": -0.17196838454520472,
          "23": -0.17497878985584034,
          "24": -0.03699836807258956,
          "25": -0.18320379362887895,
          "26": -0.07956164610791938,
          "27": -0.12996596166833313,
          "28": 0.18884684109780814,
          "29": -0.18175120507927842,
          "30": -1.5722078241159918,
          "31": 0.6068395347529093,
          "32": 0.11206704951999166,
          "33": -0.21291039496108255,
          "34": 0.09173658128364515,
          "35": -1.5456349454321108,
          "36": 0.575954822889983,
          "37": -0.6373648418550749,
          "38": -0.28589400204655513,
          "39": 0.4053595239604802,
          "40": -1.190811066486216,
          "41": -0.4909807797488862,
          "42": -0.7346525828075969,
          "43": 0.5391811271998311,
          "44": -0.6500795018090879,
          "45": -0.4307614600822842,
          "46": 0.0796357725396158,
          "47": 0.8228098072219999,
          "48": 0.07202608510168837,
          "49": -0.22103522627519445,
          "50": 0.581834994305366,
          "51": 0.003761830492388518,
          "52": -0.7741166490697581,
          "53": 0.26865610837467957,
          "54": 0.1631323004263949,
          "55": 1.2931995174810573,
          "56": -2.412615612713831,
          "57": -0.1571708772932341,
          "58": -1.516720776647025,
          "59": 0.5758254910759933,
          "60": 0.7982613803488686,
          "61": 1.1917517637168307,
          "62": 2.597608729744276,
          "63": -0.015557488288959122,
          "64": -0.018421132902617165,
          "65": 0.3026434510546399,
          "66": 0.5223378158826513,
          "67": 0.423752259050959,
          "68": -0.38322623046738136,
          "69": 0.5996534001864194,
          "70": 0.6491164802133416,
          "71": 0.2343308907593948,
          "72": -0.9911767970479866,
          "73": 0.610036760711376,
          "74": -0.19408806567234552,
          "75": -0.01865584299464737,
          "76": -0.294339191983985,
          "77": 0.1811381740064769,
          "78": -0.07435819662176525,
          "79": -0.45285527304347845
        }
      },
      "3": {
        "bias": -0.7208844819920118,
        "weights": {
          "0": 1.5831615556955165,
          "1": -0.08448713886546688,
          "2": -0.15718554079573627,
          "3": 0.6470713676041012,
          "4": 0.07820700285602669,
          "5": 0.07354529105038043,
          "6": 0.18288936697050096,
          "7": -0.1930944316161905,
          "8": -0.10470400729297431,
          "9": -0.09831047809477421,
          "10": -0.0558391834232774,
          "11": -0.056663668272275924,
          "12": 0.17587508194722856,
          "13": -0.10204047369388114,
          "14": -0.1381230766808786,
          "15": 0.04351539235746582,
          "16": -0.6652092765821552,
          "17": -0.0010670916465670196,
          "18": 0.1539691113348009,
          "19": 1.0955830383240903,
          "20": 1.3697357380405764,
          "21": 0.8162733182841451,
          "22": 0.3647460510443684,
          "23": 0.45993267164249485,
          "24": -0.9485287504496493,
          "25": -0.10498884127340928,
          "26": 0.08564172855929673,
          "27": -0.18655349232667795,
          "28": -0.04160946235229176,
          "29": -0.046479924653296006,
          "30": -3.319758852042974,
          "31": -3.6866842375646542,
          "32": 0.41452776512519207,
          "33": -1.7727570122920813,
          "34": 0.2044761389329205,
          "35": -3.4912462531684825,
          "36": -3.5983217010071056,
          "37": 1.3624053535350351,
          "38": 1.2106318350511853,
          "39": 1.4861075462619362,
          "40": 1.0788507832874703,
          "41": 0.09253645213840059,
          "42": -0.8680364395936722,
          "43": 5.228979282435689,
          "44": -1.6103833673086136,
          "45": -1.6039157807441298,
          "46": 0.21919634894394818,
          "47": 1.2635091727221315,
          "48": -0.5520303000340779,
          "49": 0.35386692680403187,
          "50": 1.4977661358837955,
          "51": -0.47297560478116596,
          "52": 0.0464839414996086,
          "53": 0.7509303777727542,
          "54": -0.6368541734140459,
          "55": 3.0913948345509246,
          "56": 1.569376743872075,
          "57": -5.1262691518371755,
          "58": -3.5944039224333566,
          "59": -2.292314604763819,
          "60": 0.4688193240016944,
          "61": 1.0122667167362016,
          "62": 4.219794694343509,
          "63": -0.26146604485418296,
          "64": -1.4855995814624259,
          "65": 3.237076824199592,
          "66": 0.6148082813446312,
          "67": -0.4766634048664218,
          "68": -0.5882520638690323,
          "69": 0.22755077777646374,
          "70": 0.14411780627176835,
          "71": -0.059265617141791904,
          "72": -1.055154884616887,
          "73": -0.33640494884325994,
          "74": 1.2048183929246459,
          "75": 0.29142669087851414,
          "76": 0.48322510405122626,
          "77": 0.7568219248575896,
          "78": -0.21782805514259684,
          "79": -0.06639284386008508
        }
      },
      "4": {
        "bias": -2.5873369524474157,
        "weights": {
          "0": 1.0026087120660923,
          "1": 0.47968332755178683,
          "2": 0.043273174586782655,
          "3": 0.5043130550867999,
          "4": -0.015104314708637125,
          "5": -0.09357682372386834,
          "6": -0.14018575645587594,
          "7": -0.12642844690795985,
          "8": 0.12473110336547483,
          "9": -0.07738490457628987,
          "10": 0.025214770786903346,
          "11": -0.10735163462353432,
          "12": 0.05702791193280621,
          "13": 0.17565591513553924,
          "14": -0.030433707045396996,
          "15": 0.18381693460518378,
          "16": -0.3090932769458967,
          "17": -0.16828773434857852,
          "18": 0.029225364603445072,
          "19": 0.6829247755440156,
          "20": 1.1402983974204948,
          "21": 0.3285761047518497,
          "22": 0.25311067935286424,
          "23": -0.02614745997475052,
          "24": -0.468492716456784,
          "25": -0.01807602944856828,
          "26": -0.14223165781489827,
          "27": 0.16200980465835965,
          "28": 0.020481265018919285,
          "29": -0.0992939475906505,
          "30": 0.13279092757480956,
          "31": -0.6268162423850692,
          "32": 0.8247476785886192,
          "33": 0.08556354608036382,
          "34": 0.11632271580658166,
          "35": 0.7129202415337536,
          "36": -0.9677490970177477,
          "37": 0.037187517131657834,
          "38": 0.1116236603983753,
          "39": -0.032508227496864876,
          "40": 0.12143036949255333,
          "41": -0.6517577938786999,
          "42": 0.7329339923054292,
          "43": 0.6330605661422288,
          "44": 0.32091444624017323,
          "45": 0.4462961364537481,
          "46": 0.05282957209967096,
          "47": 0.08172111332469009,
          "48": 0.08265805564735787,
          "49": 0.22697967440103034,
          "50": 0.29340062783147575,
          "51": -0.06682105770285494,
          "52": 0.7134319599835204,
          "53": 0.3667597758905305,
          "54": -0.24945223956605278,
          "55": -0.9910031698999031,
          "56": 2.549765295954904,
          "57": -2.702088240097275,
          "58": -1.484992439868525,
          "59": -1.4581834710587358,
          "60": -0.7819459298750874,
          "61": -0.7000303593794232,
          "62": -0.5195779372995406,
          "63": -0.5255814558492812,
          "64": -0.2592291361616415,
          "65": 0.5177013812542585,
          "66": -0.36821858402457996,
          "67": -0.1070885474136826,
          "68": 0.06785284553513983,
          "69": -0.32924054353904947,
          "70": -0.34606178452359876,
          "71": -0.407857047882526,
          "72": -0.1187390134583511,
          "73": -0.37582267067092306,
          "74": 0.0038171138522391256,
          "75": -0.17437727265988684,
          "76": -0.18712271516768583,
          "77": -0.0752660795146122,
          "78": 0.0075840802695236464,
          "79": 0.07445853123096777
        }
      },
      "5": {
        "bias": -1.9315359843168243,
        "weights": {
          "0": 1.5447707913300008,
          "1": 0.12360765591469951,
          "2": 0.025366402040574106,
          "3": 1.1658730517598213,
          "4": 0.14136737809495206,
          "5": -0.10775726438171618,
          "6": 0.15344984809794682,
          "7": -0.09950678756110927,
          "8": -0.17122493666688562,
          "9": 0.12984986206459903,
          "10": -0.14933385364192475,
          "11": -0.010046882940855095,
          "12": -0.19224016996129284,
          "13": 0.19474981247194617,
          "14": 0.06529586026858292,
          "15": -0.09980403535819633,
          "16": -0.517512706307581,
          "17": 0.17654129766728596,
          "18": -0.000669720589526611,
          "19": 1.398530507125425,
          "20": 1.7284103717271158,
          "21": 0.873259660275128,
          "22": 0.12448808513252144,
          "23": 0.23958179159436807,
          "24": -0.5639566477465017,
          "25": -0.13757707616656129,
          "26": -0.1757753682843458,
          "27": 0.10283853221107403,
          "28": -0.10899341247132852,
          "29": -0.043419402904397414,
          "30": 1.185927350438342,
          "31": -2.633805876903982,
          "32": 1.2646576624498658,
          "33": 2.0157463583480744,
          "34": -0.8204705238821363,
          "35": 1.4500745964677937,
          "36": -0.6994228223642398,
          "37": -0.01162410061543216,
          "38": 0.4252474044875588,
          "39": 1.9184895431845417,
          "40": -0.5296038270100861,
          "41": -1.3669887149629492,
          "42": 0.5336029550070277,
          "43": 1.508382840281086,
          "44": -0.35688984456370765,
          "45": -0.5877251650924297,
          "46": -0.4520415980258204,
          "47": 0.4643441639129324,
          "48": 0.36283084124184845,
          "49": 0.8228909580744447,
          "50": 0.028469973877408274,
          "51": -0.5121673190159087,
          "52": 0.42723903545772,
          "53": 0.5238127087835048,
          "54": -0.5949431391968943,
          "55": 0.4311869687134299,
          "56": 1.6909559212288356,
          "57": -3.8685163876507986,
          "58": -2.585625870191472,
          "59": -2.629722390297072,
          "60": -1.7933530574884724,
          "61": -0.49111605800183517,
          "62": -0.22753967968272704,
          "63": -1.0573927725276648,
          "64": -1.0603045192331622,
          "65": 0.5559681759534922,
          "66": -0.1525292396425335,
          "67": -0.07603576744552576,
          "68": -0.19748395147383865,
          "69": -0.44299393075863475,
          "70": -0.33273304420076943,
          "71": -0.49697828856995163,
          "72": -0.7745701471825047,
          "73": 0.41806756199178885,
          "74": 0.014789618316557281,
          "75": 0.01642685129124101,
          "76": -0.2706511745491639,
          "77": -0.17495005442391387,
          "78": -0.3251987331651901,
          "79": -0.1884065158013221
        }
      },
      "6": {
        "bias": -1.7958970177110443,
        "weights": {
          "0": -1.4158057022376809,
          "1": -0.11633212691527955,
          "2": 0.10783444467552243,
          "3": -0.9269366203583427,
          "4": -0.0018790345044689231,
          "5": 0.10852689977419532,
          "6": -0.18807213645243223,
          "7": -0.06130662614181165,
          "8": 0.10086232745599644,
          "9": -0.08339383045570746,
          "10": -0.10055104581862057,
          "11": 0.012902853040738294,
          "12": -0.07203755311666571,
          "13": -0.06272427826595353,
          "14": -0.015112010717020674,
          "15": 0.16993335787385533,
          "16": 0.4760967010612929,
          "17": 0.17678134108139276,
          "18": 0.07338730343424504,
          "19": -1.0667572512550236,
          "20": -0.9490183902135171,
          "21": -0.2216217259614637,
          "22": -0.13192958936297725,
          "23": -0.271292030495628,
          "24": 0.5187549739818176,
          "25": -0.040450091992618335,
          "26": 0.011571670437892654,
          "27": 0.142602892894726,
          "28": 0.17374151462765938,
          "29": 0.11510937328152462,
          "30": 0.14262501154589688,
          "31": 3.2724877604050344,
          "32": -4.262675932131404,
          "33": 0.3997107407983047,
          "34": -0.2761145728357759,
          "35": -3.714278295849657,
          "36": -0.10639341507300744,
          "37": 2.375789693456145,
          "38": -2.4946707067741385,
          "39": 0.9745992138475915,
          "40": -3.510360734861787,
          "41": -1.9397669530486112,
          "42": 0.5970901704486242,
          "43": -1.2814894883751902,
          "44": -2.900553110661794,
          "45": -1.7038958181393327,
          "46": 0.15176596496280947,
          "47": 1.1749173724163018,
          "48": -0.6668857671731706,
          "49": -0.9113993401234807,
          "50": -0.07313962250052428,
          "51": 0.40268640488243357,
          "52": -1.88230218366186,
          "53": -0.9540755077705995,
          "54": 0.061444288637777913,
          "55": -5.405066920531054,
          "56": -4.704384293287257,
          "57": -0.7283384862735929,
          "58": 2.099397965512427,
          "59": 4.955719008955325,
          "60": 4.917770792426302,
          "61": 4.342227244239764,
          "62": 4.494575436089375,
          "63": 1.8665710833005091,
          "64": 1.4846472826482797,
          "65": -1.667964105255267,
          "66": 0.8320865252520819,
          "67": 0.034472163907826404,
          "68": -1.5548451420604117,
          "69": 1.9003607288971187,
          "70": 1.4219813854879344,
          "71": 2.2014767279519067,
          "72": 0.022783051731505428,
          "73": 1.9562327189882978,
          "74": -1.5738235409051786,
          "75": 2.351273476094429,
          "76": 0.33442005728027846,
          "77": 1.3218198875930938,
          "78": -0.23487377568063972,
          "79": -0.7615274766809486
        }
      },
      "7": {
        "bias": -1.99113879515173,
        "weights": {
          "0": -1.6041788091553628,
          "1": -0.10431970173869529,
          "2": 0.08329385239208602,
          "3": -0.9505425018293854,
          "4": -0.07656157316126681,
          "5": -0.10646204852780262,
          "6": -0.13251970749802694,
          "7": 0.017984671136137192,
          "8": 0.044495690067853394,
          "9": -0.10568502663734797,
          "10": -0.08508840248501529,
          "11": -0.04286258952400174,
          "12": 0.17803668432312875,
          "13": 0.19018556855853258,
          "14": 0.1876888307426074,
          "15": -0.01187641665226985,
          "16": 0.6417994291335655,
          "17": 0.08384595334776947,
          "18": -0.15400529975871877,
          "19": -1.1289255668860172,
          "20": -1.2515451185666486,
          "21": -0.4690183294074035,
          "22": -0.30883717360688556,
          "23": -0.44090406686713723,
          "24": 0.5785181025344649,
          "25": -0.1643240944198103,
          "26": 0.08327088253604771,
          "27": 0.08422581631794764,
          "28": 0.08058597415291001,
          "29": -0.12933036414059715,
          "30": 0.2612819544911524,
          "31": 1.2069479385071935,
          "32": -3.215629817128948,
          "33": -0.6131411212932704,
          "34": -0.5340087659782473,
          "35": -1.283880217447207,
          "36": -1.930576426239564,
          "37": -0.1740725252772497,
          "38": -1.0725743736194122,
          "39": -1.4697564056707773,
          "40": -0.5234546017792665,
          "41": 0.8190772289984632,
          "42": -0.7372513796720639,
          "43": -1.8018433750171092,
          "44": -0.3997732849356998,
          "45": -0.8779540041327808,
          "46": 0.14991669393926432,
          "47": 0.027976993807224407,
          "48": -0.4593146807718029,
          "49": -0.37184226838724105,
          "50": 0.12493827031356308,
          "51": 0.5299765642123988,
          "52": -0.8918249327118893,
          "53": -0.5461885612882147,
          "54": 0.6480094630486497,
          "55": -1.537298630512035,
          "56": -2.3014028681919845,
          "57": 2.663077973292867,
          "58": 5.047267187635322,
          "59": 2.9617526758996933,
          "60": 2.9047062978805496,
          "61": 1.5421252887902832,
          "62": -0.5222796329484553,
          "63": 1.1632622971157798,
          "64": 0.7269700616991467,
          "65": -0.2510130274237796,
          "66": -0.47055077251018934,
          "67": 0.056660124621464136,
          "68": 0.7310994835537823,
          "69": 0.7747057933510543,
          "70": 0.41030228035315064,
          "71": 0.5141445403679218,
          "72": 0.5163614678463142,
          "73": 0.42824185952830585,
          "74": -0.5348405903940086,
          "75": 0.5350285400404206,
          "76": -0.2043333717630404,
          "77": 0.5916628502331588,
          "78": 0.09502181447553994,
          "79": -0.4819179321009252
        }
      },
      "8": {
        "bias": -1.5670109319983188,
        "weights": {
          "0": -1.327194719726769,
          "1": 0.23610065752316228,
          "2": -0.11859488231288702,
          "3": -0.9686896259873309,
          "4": 0.0011229427396525849,
          "5": -0.10590565747373584,
          "6": 0.17818690912848317,
          "7": -0.011345278258616892,
          "8": 0.09277471080728639,
          "9": -0.012748898341586212,
          "10": -0.08826439169168952,
          "11": 0.08524773909786998,
          "12": 0.02458937690632937,
          "13": -0.048103167582948275,
          "14": 0.10197855512984683,
          "15": 0.06438542366242456,
          "16": 0.4272446045281966,
          "17": -0.07310066712671558,
          "18": -0.0509778793750274,
          "19": -1.4577890507891964,
          "20": -1.423443829498097,
          "21": -0.31277045277670473,
          "22": -0.2309670806636205,
          "23": -0.2959852257259578,
          "24": 0.5617586627673883,
          "25": 0.17326007167975535,
          "26": -0.11316402473324277,
          "27": -0.16009338970331055,
          "28": 0.17922700120079016,
          "29": 0.16953064570943496,
          "30": 0.5933322819454543,
          "31": 1.9313004126861102,
          "32": -5.094443756156486,
          "33": 3.949528527450655,
          "34": 3.186364556364227,
          "35": -1.6171553333995161,
          "36": -3.0875818232636303,
          "37": 2.6678763343941108,
          "38": 0.009947635527095548,
          "39": 1.7027730376275898,
          "40": -3.878170527454134,
          "41": -3.0093254626580705,
          "42": -0.547706859750406,
          "43": -1.6060271673988364,
          "44": -2.718336724567033,
          "45": -3.43803921588315,
          "46": 0.7135926158616596,
          "47": 0.9208672317261271,
          "48": 1.0435722212558183,
          "49": -0.2216289465781758,
          "50": -0.36341277556000895,
          "51": 1.0814404396922408,
          "52": -2.8389688584919295,
          "53": -0.27540799633126756,
          "54": 0.6037730018530117,
          "55": -4.482548302428948,
          "56": -5.935211527389407,
          "57": -1.1883806830664732,
          "58": 3.8282821610175595,
          "59": -0.010505480517695663,
          "60": 9.846890125194072,
          "61": 3.8000048834557916,
          "62": 1.9131547748944617,
          "63": 1.50855895535147,
          "64": 2.481827945869113,
          "65": -1.5025209336949765,
          "66": 1.7100136190044817,
          "67": 0.6665691592685504,
          "68": -3.23219261624523,
          "69": 0.0632564028134491,
          "70": 2.4108836119243593,
          "71": 0.8414919761473066,
          "72": -1.1863926925818782,
          "73": 3.2178944539506906,
          "74": -2.4426512590444074,
          "75": 2.5995704215634783,
          "76": -0.5666428701420474,
          "77": 2.0461998393828953,
          "78": -0.7701973556631744,
          "79": -1.364036025470839
        }
      },
      "9": {
        "bias": -2.348249415776151,
        "weights": {
          "0": -0.7090348622067466,
          "1": -0.06391043434571991,
          "2": 0.16529375857297196,
          "3": -0.5210125648939241,
          "4": 0.11231340628992904,
          "5": -0.10024645563117662,
          "6": 0.18381455151305465,
          "7": 0.18675259420762363,
          "8": -0.15112219463061757,
          "9": -0.18967900947178062,
          "10": 0.07364675012575184,
          "11": 0.06481624128508462,
          "12": 0.1091943906820591,
          "13": 0.1896675417603209,
          "14": 0.15678431107691976,
          "15": -0.09826777456763205,
          "16": 0.4569212986984056,
          "17": -0.06738729577005172,
          "18": -0.010451027657234936,
          "19": -0.41142831203601865,
          "20": -0.7424671112642105,
          "21": -0.3622075299603642,
          "22": 0.021303560808872374,
          "23": -0.12968706619897707,
          "24": 0.33453748066342415,
          "25": -0.03920968274657265,
          "26": -0.1846160530233004,
          "27": 0.03215916844352905,
          "28": -0.013944773202760656,
          "29": -0.1301423043365697,
          "30": -0.19783639554988613,
          "31": 0.9538029197146315,
          "32": -1.3057788511004453,
          "33": -0.7169593590263537,
          "34": -0.25431804325089813,
          "35": -0.5532980774962468,
          "36": -0.07551931320069132,
          "37": -0.17625275284665073,
          "38": -0.5116481715341966,
          "39": -0.9260108647723136,
          "40": 0.1526225083046372,
          "41": 0.35279188893086794,
          "42": -0.2537303550350633,
          "43": -1.1613433145039749,
          "44": 0.08425908990354695,
          "45": -0.2807714629176324,
          "46": -0.26278412822918873,
          "47": -0.13731811596925125,
          "48": 0.04671129391196207,
          "49": -0.5234545626714752,
          "50": -0.32651418580023245,
          "51": 0.2935218009189113,
          "52": -0.14837026095725855,
          "53": -0.39998375555561877,
          "54": 0.2842435088875873,
          "55": -0.46188131782424846,
          "56": -0.9970045912704005,
          "57": 2.838053673519918,
          "58": 1.317678533750737,
          "59": 1.5042261518011484,
          "60": -0.04412062401585579,
          "61": 0.12437437408207574,
          "62": -0.2647407496835394,
          "63": 0.06130193035687636,
          "64": 0.26621449164531563,
          "65": -0.40787318149913054,
          "66": -0.08546224270578999,
          "67": -0.006321906868570498,
          "68": 0.5823516556474143,
          "69": 0.1607331849332931,
          "70": -0.013779743585398782,
          "71": 0.390709288555743,
          "72": 0.44373672726320584,
          "73": 0.12786539964939345,
          "74": 0.018085899398341578,
          "75": 0.014826530821004694,
          "76": -0.07770905247200556,
          "77": -0.2687345438275736,
          "78": 0.033828634087093086,
          "79": -0.022506590770911102
        }
      },
      "10": {
        "bias": -1.6581454359598655,
        "weights": {
          "0": -0.6670107999910492,
          "1": -0.6538457351762941,
          "2": 0.10838105423745938,
          "3": -0.3881949090257622,
          "4": 0.15838228196602594,
          "5": 0.012239996711546764,
          "6": -0.005293520949638364,
          "7": -0.041717678936903896,
          "8": -0.17551137224732358,
          "9": 0.13400956207362835,
          "10": 0.19261199577452015,
          "11": 0.14712325179255475,
          "12": 0.19750624050542154,
          "13": 0.1463561636425686,
          "14": 0.01777589450463521,
          "15": -0.11680791385139618,
          "16": 0.45410846369041713,
          "17": -0.04732249952165713,
          "18": -0.051209879169512494,
          "19": -0.6678881521316713,
          "20": -1.7186501408401444,
          "21": -0.17604856257375434,
          "22": -0.16574646968939424,
          "23": -0.17326189521809657,
          "24": 0.10166235467168026,
          "25": 0.16160012847506247,
          "26": 0.042862028968784535,
          "27": -0.15152313609895618,
          "28": -0.07168526487268169,
          "29": -0.08452505577282045,
          "30": -2.8455666533143216,
          "31": -1.323643083795105,
          "32": -1.5076389003298754,
          "33": 2.644857246154006,
          "34": 2.286910944377042,
          "35": -1.7387960134527018,
          "36": 1.6393999968533481,
          "37": -0.05267468655336331,
          "38": 3.3918899612799356,
          "39": -0.24310140822287835,
          "40": 3.800553341362227,
          "41": 2.792367025901417,
          "42": -1.5115449373892391,
          "43": 1.3158661478975346,
          "44": -0.204384402858923,
          "45": 0.2573628430504517,
          "46": -0.2446755679019926,
          "47": -1.0998201453361784,
          "48": 0.2589274837846197,
          "49": -1.541811043510936,
          "50": -0.9433863827365124,
          "51": -0.06341255122023229,
          "52": -0.05500534451508495,
          "53": -0.22540983337515336,
          "54": 0.07652908224720491,
          "55": 0.25085610424676985,
          "56": -1.094100809196951,
          "57": 2.6206041103286575,
          "58": 0.4518022002373743,
          "59": 2.5942613379930872,
          "60": -0.7777479702420389,
          "61": -1.711177850675296,
          "62": 1.1908910826095327,
          "63": -0.6987148715201816,
          "64": 0.4949365743215665,
          "65": -0.6676828947711577,
          "66": -0.4324381694140073,
          "67": -1.3891616804697318,
          "68": 0.5228641118922762,
          "69": -0.7334094506844839,
          "70": -0.9478143807455722,
          "71": -0.3285406872338805,
          "72": -0.710609501414559,
          "73": -0.8429937562481898,
          "74": 0.3616995257709463,
          "75": -0.24663167423944904,
          "76": 0.3991212021395409,
          "77": 0.001851329068664505,
          "78": 0.007419645681183103,
          "79": -0.055962240137210545
        }
      },
      "11": {
        "bias": -2.2637713710505363,
        "weights": {
          "0": 0.7060808194563015,
          "1": 0.33568989520472176,
          "2": 0.07494088887055797,
          "3": 0.12634193190314127,
          "4": 0.06358617096443363,
          "5": -0.14870381925896145,
          "6": -0.10732455829587312,
          "7": -0.16123533104926652,
          "8": -0.07814315169243057,
          "9": 0.10893026957753443,
          "10": -0.1619743639109692,
          "11": -0.08205900382031306,
          "12": -0.041128197255860865,
          "13": -0.030073328246403713,
          "14": -0.07030951756984091,
          "15": 0.0929973527006539,
          "16": -0.3524382399465501,
          "17": 0.11213856090807167,
          "18": -0.1238311003715658,
          "19": 0.578791346768142,
          "20": 0.6593668041253642,
          "21": 0.1594793257001485,
          "22": 0.1406280391560816,
          "23": -0.0341548139419738,
          "24": -0.26892850892254994,
          "25": 0.06813175383526417,
          "26": -0.17458917200441196,
          "27": 0.05840828263584139,
          "28": -0.0874505167174269,
          "29": 0.07112356027745069,
          "30": -0.13462747624330457,
          "31": -0.1313647828385866,
          "32": -0.5220479957575449,
          "33": 2.202565392750323,
          "34": 2.4565620031349815,
          "35": 0.7878093971377101,
          "36": -1.051412445289549,
          "37": 1.195908404169077,
          "38": 0.7511128968411404,
          "39": -1.0021189655243634,
          "40": -0.18903242028896802,
          "41": -0.8634799224708415,
          "42": 0.8011160134499494,
          "43": 0.9223603124816953,
          "44": 0.5117593099185682,
          "45": 0.37684992701340175,
          "46": 0.07366545916522181,
          "47": -0.37622829482243086,
          "48": 0.34703938930737416,
          "49": 0.4280076788239425,
          "50": -0.433719014754201,
          "51": -0.3313265370175475,
          "52": 0.39101917245691153,
          "53": -0.006881110840400816,
          "54": -0.49021465668463393,
          "55": -3.845741016592986,
          "56": 3.621610789419879,
          "57": -3.095417736055641,
          "58": -0.9831488397840741,
          "59": -1.8206364175349934,
          "60": -0.5112291256563757,
          "61": -0.5779671209876978,
          "62": -1.1152797855434042,
          "63": -0.9531237682628316,
          "64": -0.04490169497329901,
          "65": 0.41382646177009763,
          "66": -0.604279201146321,
          "67": -0.35367816971387256,
          "68": -0.28041878125691666,
          "69": -0.7290763317573863,
          "70": -0.35125243779040416,
          "71": -0.5285954873792797,
          "72": 0.2096312325431718,
          "73": -0.4500196874282389,
          "74": 0.25518354371181856,
          "75": 0.2903441359029527,
          "76": 0.08435215130624003,
          "77": 0.05404542390837123,
          "78": -0.18563801284345302,
          "79": 0.1799713791827526
        }
      },
      "12": {
        "bias": -1.811641059041169,
        "weights": {
          "0": 0.4337171745732449,
          "1": 0.004252601962824994,
          "2": -0.03702891137291505,
          "3": 0.24878393518622383,
          "4": 0.01122816824055916,
          "5": 0.17734548906799658,
          "6": 0.12211639636453092,
          "7": 0.12247357005757514,
          "8": -0.1765478593944014,
          "9": -0.1659069403230422,
          "10": -0.01821425259662038,
          "11": -0.11207813898351526,
          "12": -0.08996331613883797,
          "13": -0.05653778568680545,
          "14": -0.16899776372622155,
          "15": 0.17174139426931528,
          "16": -0.14961309839776035,
          "17": -0.12235988633629619,
          "18": -0.02994369855835632,
          "19": 0.48725234645656834,
          "20": 0.348262694737844,
          "21": 0.19142535955237716,
          "22": 0.2853423584546726,
          "23": 0.059996686195633815,
          "24": 0.009084891962097353,
          "25": 0.06778267956692603,
          "26": 0.0921116118394324,
          "27": -0.17617302100681512,
          "28": 0.05640318400199184,
          "29": 0.17426503987506028,
          "30": -0.004865428505340729,
          "31": -1.6922293161498192,
          "32": 3.7088196625218166,
          "33": 1.300218828299541,
          "34": -2.0551363036680876,
          "35": 0.3894743467255491,
          "36": 2.658803874245104,
          "37": 2.8748863090011083,
          "38": 1.3372719218119957,
          "39": -0.8926905846614439,
          "40": 3.2992101347383995,
          "41": -0.328705225446011,
          "42": 1.5695424341690134,
          "43": 0.5158013307209166,
          "44": 0.5407733438561337,
          "45": 1.6857413051432608,
          "46": 0.20888942115057907,
          "47": -1.860137566488792,
          "48": 0.7585554240395183,
          "49": -0.22916887493871976,
          "50": -1.1766406256123454,
          "51": -0.9174141142906087,
          "52": 1.8947223519118641,
          "53": -0.33391317453942176,
          "54": -0.2725075899177299,
          "55": -3.9124082283098716,
          "56": 1.7928901715685595,
          "57": 2.2129130272388973,
          "58": -1.6135898418939305,
          "59": -2.4166381842414855,
          "60": -3.414519727561003,
          "61": -2.321185373682219,
          "62": -2.063656145486442,
          "63": -2.329463865886724,
          "64": 0.8085997346723139,
          "65": -0.5664730193891206,
          "66": -1.1060300249339166,
          "67": -0.5521429804772161,
          "68": 0.5986592223462183,
          "69": -2.462584903760878,
          "70": -1.2793623869412902,
          "71": -0.5471351466494758,
          "72": 0.8146778645911005,
          "73": -1.4991472426662953,
          "74": 1.1318444141881554,
          "75": -0.5324569817187598,
          "76": 0.5781708301274096,
          "77": -1.039691716673694,
          "78": -0.004087763859191071,
          "79": 1.3346666895594501
        }
      },
      "13": {
        "bias": -1.051635009968736,
        "weights": {
          "0": 1.3706659833701087,
          "1": 0.07791592773528587,
          "2": 0.09488684590323777,
          "3": 0.5683879868129023,
          "4": -0.07606051026927917,
          "5": 0.029072383944078167,
          "6": -0.019664399829390694,
          "7": 0.05793009948494454,
          "8": -0.19575596233466808,
          "9": -0.024499371938957626,
          "10": 0.12683623453032739,
          "11": -0.05083842259367177,
          "12": 0.021243763260441112,
          "13": 0.18483596937088376,
          "14": 0.15196692808284035,
          "15": -0.1559602909166233,
          "16": -0.926699188167253,
          "17": 0.14154253312432288,
          "18": -0.02708522285790624,
          "19": 1.088029101039205,
          "20": 1.2079564092695385,
          "21": 0.8005268787003786,
          "22": 0.5281206348629233,
          "23": 0.31836956925763416,
          "24": -0.7236014442103014,
          "25": 0.07897463868709177,
          "26": 0.0829282193016984,
          "27": 0.14604154378128492,
          "28": -0.04310295292394296,
          "29": 0.17551454859580054,
          "30": -4.614824379181543,
          "31": -3.595960047518373,
          "32": 4.780462353128098,
          "33": 0.3053822671738836,
          "34": 0.6255381463058198,
          "35": -2.361629499975166,
          "36": -0.6740762709831597,
          "37": 1.3387340752522208,
          "38": 0.802268068069454,
          "39": 5.2083384610751375,
          "40": 1.6561600952176725,
          "41": -0.7600554848669081,
          "42": 0.5445876867164924,
          "43": 6.873773946499681,
          "44": -2.2044488426167668,
          "45": 0.363397295835259,
          "46": 1.1909569200794283,
          "47": 2.181621062799664,
          "48": -0.7328554871850003,
          "49": 1.220000617246504,
          "50": 1.0541895112422415,
          "51": -1.696739664575675,
          "52": 0.6242932202168847,
          "53": 0.433145184331967,
          "54": -1.110960932288546,
          "55": 1.8738175443411464,
          "56": -0.8630410449269285,
          "57": -5.17642552245094,
          "58": -7.335716548364287,
          "59": -1.0945613587757723,
          "60": -3.640031544123683,
          "61": 0.8219556983425129,
          "62": 5.1100645820260535,
          "63": -2.7622430276611283,
          "64": -1.5072651578559617,
          "65": 1.740157954592377,
          "66": 1.639928390823499,
          "67": -1.5130121650727606,
          "68": -1.3484176469828484,
          "69": -0.7927733406447044,
          "70": -0.908154003279702,
          "71": 0.3720496587080055,
          "72": -1.7583374914563632,
          "73": -0.689363129961945,
          "74": 0.861202840776459,
          "75": -0.4744988565632995,
          "76": 1.0675888342067674,
          "77": 0.420920999916897,
          "78": -0.9435243538433079,
          "79": -0.07096345261144174
        }
      },
      "14": {
        "bias": -2.027609729716176,
        "weights": {
          "0": -1.2996348243252036,
          "1": 0.1698031723460758,
          "2": 0.029482977571125415,
          "3": -0.7803781483737413,
          "4": 0.19488702739531275,
          "5": 0.11794431997596842,
          "6": 0.03657399322772098,
          "7": -0.05999156669062594,
          "8": -0.18094704688705968,
          "9": -0.10021521842517567,
          "10": 0.07397139086637283,
          "11": 0.058321941094894136,
          "12": 0.183497047532184,
          "13": -0.07036161420252415,
          "14": -0.0069918100435417685,
          "15": -0.03150402348804954,
          "16": 0.49452942863198246,
          "17": -0.08152344485413396,
          "18": 0.11705773533613174,
          "19": -1.1382540405736652,
          "20": -1.374005711950344,
          "21": -0.23858992932444884,
          "22": -0.335201349490305,
          "23": -0.2192509090747215,
          "24": 0.48904573536056434,
          "25": 0.01813140434655519,
          "26": -0.08976399529827389,
          "27": -0.0669713364784006,
          "28": 0.19085455739138613,
          "29": 0.14664269093341645,
          "30": 0.03911443787033692,
          "31": 1.5648888921284763,
          "32": -2.911798581067382,
          "33": -1.3601993693801782,
          "34": -0.5757751874343227,
          "35": -0.818526809626787,
          "36": -1.6556254948568694,
          "37": 0.8499351476425898,
          "38": -0.9513810115890788,
          "39": -0.430080430306658,
          "40": -1.6960341724845607,
          "41": -0.8453321752635558,
          "42": 0.46788975388556453,
          "43": -1.1280402045953941,
          "44": -1.6890394583865438,
          "45": -1.5620860452992893,
          "46": 0.18470905357075967,
          "47": 0.559326886544749,
          "48": 0.031702403174975004,
          "49": -0.2696693530496622,
          "50": 0.20484197097369414,
          "51": 0.6622264618692928,
          "52": -1.4886470401851624,
          "53": -0.5216205562571239,
          "54": 0.6792399213403157,
          "55": -2.692263221819472,
          "56": -4.927414479794817,
          "57": -0.8905542642043998,
          "58": 4.495542579510096,
          "59": 2.8901203298540294,
          "60": 5.746424423309327,
          "61": 4.296171634955699,
          "62": 0.7735858803615459,
          "63": 0.7119001957522989,
          "64": 1.3732716606116682,
          "65": -0.39908684510313697,
          "66": 1.05454441024539,
          "67": 0.4875055413351684,
          "68": -0.7175806193845745,
          "69": 0.316182934190848,
          "70": 1.2970969579972067,
          "71": 0.7349273523438965,
          "72": -0.18159509712554892,
          "73": 1.1093678268838625,
          "74": -1.4307926471346146,
          "75": 0.8593962734762685,
          "76": 0.25393312220587233,
          "77": 1.0775136119511848,
          "78": -0.13463183637782108,
          "79": -0.3768419703671978
        }
      },
      "15": {
        "bias": -1.837804949099824,
        "weights": {
          "0": 0.0999501378597507,
          "1": 0.1712085703498431,
          "2": 0.12331116942609448,
          "3": -0.07237841441945399,
          "4": -0.12009668539055651,
          "5": -0.14366185343420848,
          "6": -0.05666921015317064,
          "7": 0.02849661766729525,
          "8": -0.1288437658695596,
          "9": -0.08889745221859835,
          "10": 0.07242047492805453,
          "11": 0.04026856188835676,
          "12": 0.1821444841978443,
          "13": -0.05893979053724002,
          "14": 0.16426665842280413,
          "15": -0.1084895936258997,
          "16": 0.2933176429817005,
          "17": 0.07424833250569617,
          "18": 0.16608049039996822,
          "19": -0.07800623404175706,
          "20": 0.05466722477208522,
          "21": -0.09095762048340367,
          "22": -0.021965530349985548,
          "23": 0.03388657027622245,
          "24": -0.13335718261258311,
          "25": -0.12634849582270483,
          "26": 0.17610097190761648,
          "27": -0.14598809004702956,
          "28": 0.026212437525944793,
          "29": -0.1872291170298164,
          "30": 0.8552246822832374,
          "31": -3.615707022052997,
          "32": 0.619263599850137,
          "33": 0.18739854652797797,
          "34": 0.3981061516946561,
          "35": 1.5837019330613937,
          "36": 1.6343963978248375,
          "37": 0.2509756947667024,
          "38": 0.2432947746499239,
          "39": -1.9510137964448557,
          "40": 2.662835326846001,
          "41": 2.8426015671881095,
          "42": 2.0141289429564537,
          "43": -2.3006101147223017,
          "44": 0.9332091554648786,
          "45": 3.0526188340577165,
          "46": -0.2595355217109968,
          "47": -1.4945007688955267,
          "48": 0.6125181502831826,
          "49": 1.2259489407736333,
          "50": -1.0609055874992421,
          "51": -0.17929881402272482,
          "52": 1.565025166080583,
          "53": -0.8339563965882775,
          "54": 0.3248716031935391,
          "55": -7.009652600043751,
          "56": 6.867565184393984,
          "57": 1.7312965027982135,
          "58": 7.677512196022442,
          "59": 0.9815594607591874,
          "60": -1.858593362653418,
          "61": -3.119927981062216,
          "62": -4.297970554813945,
          "63": -2.1473300205610513,
          "64": -0.9903998296565303,
          "65": -1.3905418691031648,
          "66": -2.818818021195888,
          "67": -1.5060033546738476,
          "68": 0.5061719722539973,
          "69": -1.9751105862859542,
          "70": -1.5242997524259319,
          "71": -1.7075970112673482,
          "72": 1.5692817721654067,
          "73": -1.495708352199838,
          "74": 0.7315515805127467,
          "75": -0.8329083878771845,
          "76": 0.36392628959082485,
          "77": -0.9135903373914849,
          "78": 0.2622477131073562,
          "79": 0.8332856768763479
        }
      },
      "16": {
        "bias": -1.9337979147413868,
        "weights": {
          "0": -1.2464064348681563,
          "1": -0.3057045885492041,
          "2": -0.09077622278600146,
          "3": -0.7062057099191262,
          "4": -0.013968200130492303,
          "5": 0.14563023950713672,
          "6": 0.18820626559184,
          "7": -0.055756437591145236,
          "8": -0.0830621764789294,
          "9": 0.05420159364353755,
          "10": -0.010455697107227657,
          "11": -0.043544605635396305,
          "12": 0.12412928804159601,
          "13": -0.16515095489906761,
          "14": -0.18091452897146684,
          "15": 0.1190490878694292,
          "16": 0.05199982692299211,
          "17": -0.13500837219293532,
          "18": -0.17167280447504002,
          "19": -0.6683219462000796,
          "20": -0.9309464699316441,
          "21": -0.4280195018483487,
          "22": -0.08651355051907256,
          "23": -0.3851704161863753,
          "24": 0.4625186488561671,
          "25": -0.17017075090150702,
          "26": 0.13064573005619562,
          "27": -0.11643990672078905,
          "28": 0.1589830216500764,
          "29": 0.0447706052722251,
          "30": -0.20363457386388062,
          "31": -0.4569668574005759,
          "32": -1.9441284954898912,
          "33": 1.8900114720965502,
          "34": 2.12864821033364,
          "35": -0.6754415688719412,
          "36": -1.291542309690098,
          "37": -0.3239434545580723,
          "38": 0.04831091970250351,
          "39": -1.2408236672085042,
          "40": 0.19753992697827166,
          "41": 0.47874455986047443,
          "42": -0.7912239875945187,
          "43": -1.301164103594907,
          "44": -0.6250449361491655,
          "45": -1.0556567858973243,
          "46": 0.5091577500814631,
          "47": -0.19901845891378106,
          "48": 0.34692178496475806,
          "49": -0.25030895436980327,
          "50": -0.01756857838944635,
          "51": 1.1128742970912038,
          "52": -0.9715419346061085,
          "53": -0.4008485179355639,
          "54": 0.737692663604478,
          "55": -2.9903392378595908,
          "56": -2.7062636556123896,
          "57": 0.023978392128127225,
          "58": 5.217596291933669,
          "59": 0.2671384419997592,
          "60": 4.319559205399965,
          "61": 0.7009765292224285,
          "62": -0.7908241450042907,
          "63": 0.3090315512690568,
          "64": 0.5893205087433505,
          "65": 0.019309084049232202,
          "66": -0.3701819343284839,
          "67": 0.048898167610327975,
          "68": -0.13329674137696562,
          "69": 0.055547521699737576,
          "70": 0.6457827241196129,
          "71": -0.024578246316041802,
          "72": -0.01484347082552569,
          "73": 1.0458999127070556,
          "74": -0.7693717008252515,
          "75": 0.755114657332837,
          "76": -0.09049128056881112,
          "77": 0.24792326198128986,
          "78": -0.22165602421178648,
          "79": -0.4652205080750025
        }
      },
      "17": {
        "bias": -1.5534985444215057,
        "weights": {
          "0": 1.2173149088713966,
          "1": 0.16014340113965206,
          "2": 0.060374571115551744,
          "3": 0.5685570625143984,
          "4": -0.13666872041336317,
          "5": 0.07369510996751157,
          "6": 0.1248786164855788,
          "7": 0.048048276826386266,
          "8": 0.17784801173010262,
          "9": -0.14405136941066418,
          "10": -0.14484141759478242,
          "11": 0.1408850393230779,
          "12": 0.12352873001957926,
          "13": 0.04440959552962412,
          "14": 0.10194282870353988,
          "15": 0.1392460237794172,
          "16": -0.5006563242728309,
          "17": -0.15060012387736368,
          "18": -0.04476920295635084,
          "19": 1.193711694246673,
          "20": 1.1525084551288993,
          "21": 0.43862228484003907,
          "22": 0.10024557891453692,
          "23": 0.44521231849778137,
          "24": -0.5516525493654991,
          "25": -0.09181919899599408,
          "26": -0.060962671799809694,
          "27": 0.011332782951090168,
          "28": 0.007742017518854224,
          "29": 0.0857969176840067,
          "30": 0.2906115598423582,
          "31": -3.0341298741295715,
          "32": 1.7237746164371424,
          "33": 0.4734569340400684,
          "34": 1.5030276792605168,
          "35": -0.06273797975452737,
          "36": 0.769396015455516,
          "37": 4.915917797511549,
          "38": 0.5540468758298177,
          "39": -2.170211302138854,
          "40": 1.2409382927891146,
          "41": -0.7731604435967194,
          "42": 2.1409188189323194,
          "43": 3.7386607800908815,
          "44": 1.1803882445284866,
          "45": 2.0418266787648887,
          "46": 0.6879552631432377,
          "47": -1.4406874229221833,
          "48": 0.11252723910651143,
          "49": 0.17261427738579935,
          "50": -0.6469905287157689,
          "51": -0.5806300871228729,
          "52": 1.9957767938738256,
          "53": -0.16741026960288052,
          "54": -0.8119505671253229,
          "55": -2.6023805668290425,
          "56": 4.135566235100261,
          "57": -1.373877117795955,
          "58": -5.164698041470845,
          "59": -3.0112592659897106,
          "60": -2.9202993152288186,
          "61": -1.783734570078834,
          "62": -1.4742172289361921,
          "63": -3.084760286432753,
          "64": 1.4115199944871575,
          "65": 1.2722668571771465,
          "66": -0.7307151886181555,
          "67": -1.169281917835321,
          "68": -0.009382474313169324,
          "69": -2.8343802361828496,
          "70": -1.2224452993290087,
          "71": -1.5317615473480817,
          "72": 0.985516895736641,
          "73": -2.0364332039189716,
          "74": 1.489811689992608,
          "75": -0.8929183256605283,
          "76": 0.8634488624462635,
          "77": -0.41837238476009125,
          "78": -0.4693843694337727,
          "79": 1.1899193221131883
        }
      },
      "18": {
        "bias": -1.4705417205070386,
        "weights": {
          "0": -0.1554630020386796,
          "1": -0.31571971190496645,
          "2": -0.17010791092408645,
          "3": -0.17675344429038545,
          "4": -0.0037338280083670608,
          "5": -0.11431863226255402,
          "6": 0.09063324897478686,
          "7": 0.1881389834598906,
          "8": -0.030976073047529168,
          "9": 0.04834282790438901,
          "10": 0.09902050249614869,
          "11": 0.12927412101918473,
          "12": -0.13226898793813274,
          "13": 0.030814898720813666,
          "14": 0.10281488176121345,
          "15": -0.119746969328906,
          "16": -0.22621793216363942,
          "17": -0.11324277380161828,
          "18": -0.07248388339359518,
          "19": -0.18908745245255176,
          "20": -0.18724577881847104,
          "21": 0.009884893300822309,
          "22": 0.070868913031549,
          "23": 0.05046982582014074,
          "24": -0.055259395734482755,
          "25": 0.16220577061310834,
          "26": -0.17897895147272494,
          "27": 0.06183978943468673,
          "28": -0.09828116033800133,
          "29": 0.03954079380866119,
          "30": -1.3374931432057897,
          "31": -3.5247021669674212,
          "32": -1.7451644364066439,
          "33": 3.0071176947041263,
          "34": -0.408597316455628,
          "35": -1.215575455052851,
          "36": -0.23726915733044196,
          "37": 1.1536568769609958,
          "38": 1.9496421926036989,
          "39": 2.245663974023539,
          "40": 1.3434812060780408,
          "41": 0.5781606941909023,
          "42": 1.3838867186519797,
          "43": 1.4059736609084283,
          "44": -1.317671396074682,
          "45": -1.2606095559044106,
          "46": 0.7950501242137448,
          "47": 0.6690081202637345,
          "48": 0.6908166708910392,
          "49": 0.4834457969872703,
          "50": -0.2805901539223289,
          "51": 0.38882322942338976,
          "52": 0.035130031044036295,
          "53": 0.08402828559706256,
          "54": -0.06187960461058224,
          "55": -1.7955439462740121,
          "56": -0.8223782564740884,
          "57": -3.4364861656154213,
          "58": 2.8364100354279005,
          "59": -1.967919848613476,
          "60": 2.514109668319192,
          "61": -0.6116254361137378,
          "62": 1.602707258588512,
          "63": -0.12169106494920146,
          "64": -1.34633790932299,
          "65": -0.30866838642565453,
          "66": 0.2431779508270784,
          "67": -0.8215938227166788,
          "68": -0.9901861511093698,
          "69": -0.26806861701193796,
          "70": -0.26398595644000056,
          "71": -0.2665506085725463,
          "72": -0.5588667995217955,
          "73": 0.7723456616297,
          "74": -0.4745162624710787,
          "75": 1.1220140784482369,
          "76": -0.23828842320749552,
          "77": 0.7169366445024684,
          "78": -0.7260920462542904,
          "79": -0.753836763768058
        }
      },
      "19": {
        "bias": -1.8933966525245336,
        "weights": {
          "0": 1.190019813917536,
          "1": 0.37169014478519924,
          "2": -0.10960212441571915,
          "3": 0.5836563645289975,
          "4": -0.11594716409859662,
          "5": 0.005960103368306024,
          "6": -0.1745980663036084,
          "7": -0.18994353149720145,
          "8": -0.06983553654165223,
          "9": 0.10256437966342391,
          "10": 0.09171062495951493,
          "11": -0.09687670311621305,
          "12": 0.026376389474825318,
          "13": -0.02744583434345102,
          "14": 0.18295106522052196,
          "15": -0.1337987704756693,
          "16": -0.42797172735679334,
          "17": 0.13975307430621997,
          "18": -0.11879051303093227,
          "19": 0.8921675286859907,
          "20": 1.5124715556675143,
          "21": 0.5966983286706516,
          "22": -0.03285911779073091,
          "23": 0.2977200902397449,
          "24": -0.5360337902285316,
          "25": -0.1184981498646456,
          "26": -0.1424411729767814,
          "27": 0.09003764164054341,
          "28": -0.10630684657956721,
          "29": -0.0508779999259875,
          "30": 0.10776481531457645,
          "31": -2.073037120836433,
          "32": -0.6554552394907831,
          "33": -1.2147595380055407,
          "34": 0.19326752896425997,
          "35": 0.27538580599874923,
          "36": -1.564467641766061,
          "37": -0.4374621186260104,
          "38": 0.48975240910389806,
          "39": 0.13555733225834452,
          "40": -0.08134478261375144,
          "41": -0.40078195327071925,
          "42": 0.41190348345863803,
          "43": 1.4154052934953918,
          "44": 0.11740558473313645,
          "45": 0.1309238116506665,
          "46": -0.3054577068235778,
          "47": 0.43342510286961583,
          "48": 0.1681877172472553,
          "49": 0.6130523582049564,
          "50": 0.7751975310468001,
          "51": -0.28892064131865547,
          "52": 0.43821395012229036,
          "53": 0.25775464797014686,
          "54": -0.3673396043420122,
          "55": 1.4877218559709195,
          "56": 1.4467088356823359,
          "57": -3.0438421666791022,
          "58": -2.2684293848328,
          "59": -1.5957472734725557,
          "60": -0.8906048916298046,
          "61": -0.8336349072528171,
          "62": 0.35072689289003334,
          "63": -0.03329670379578326,
          "64": -0.703991790151857,
          "65": 0.9595771725200599,
          "66": 0.1364722530142587,
          "67": -0.18468668208900166,
          "68": -0.3065757959914313,
          "69": 0.21661988855108863,
          "70": -0.27096618637547737,
          "71": -0.4364213346301991,
          "72": -0.30448211205292275,
          "73": -0.2555489465999217,
          "74": 0.38541946053657716,
          "75": -0.05029500909546448,
          "76": -0.0019070282719273696,
          "77": 0.3365109048244668,
          "78": -0.1457616339828337,
          "79": 0.02031414826594611
        }
      },
      "20": {
        "bias": -0.5341217944506292,
        "weights": {
          "0": 1.3880808225495667,
          "1": -0.018433004620769907,
          "2": -0.08358308042846302,
          "3": 0.805162945386626,
          "4": -0.1626619513711166,
          "5": -0.19458037692259975,
          "6": -0.07139794544660047,
          "7": -0.12172189459783747,
          "8": -0.0014496204763045084,
          "9": -0.03286390890224783,
          "10": 0.031867775155140776,
          "11": -0.08657003164019789,
          "12": 0.07072046169676743,
          "13": -0.1138216626896897,
          "14": 0.0015729094938623511,
          "15": 0.17194716267790772,
          "16": -0.6606091802159774,
          "17": -0.17838117397297704,
          "18": 0.01866826361842159,
          "19": 1.0699579469725549,
          "20": 1.0202200419153378,
          "21": 0.6651791280062873,
          "22": 0.2747123150573317,
          "23": 0.09052669499579657,
          "24": -0.6765349404083274,
          "25": 0.19046454356210374,
          "26": 0.05058978713227898,
          "27": -0.07357016741873224,
          "28": 0.17464536301795988,
          "29": 0.13537592583010882,
          "30": -4.361020011733347,
          "31": -5.415957969494016,
          "32": -3.3337366388104606,
          "33": 2.40502317364938,
          "34": 1.798851239714028,
          "35": -4.558117241698319,
          "36": -1.6301040980894244,
          "37": 2.805943184939277,
          "38": 2.457591078319172,
          "39": 3.494851238865261,
          "40": 1.1041979762508116,
          "41": 0.15122894654444144,
          "42": -0.17475654202356708,
          "43": 5.931113967596961,
          "44": -3.5506564417483375,
          "45": -1.8553117549295042,
          "46": 1.3882269655691908,
          "47": 1.6536295303320565,
          "48": 0.09404035520343206,
          "49": 1.3190751367024223,
          "50": 0.17301582189663062,
          "51": -0.05785923633897422,
          "52": 0.2910455976254091,
          "53": 0.4156667619999461,
          "54": -0.6329879061189329,
          "55": 1.6135598355264795,
          "56": 2.9303835617415936,
          "57": -6.672384004820334,
          "58": -0.7192881728467376,
          "59": -3.4684955435068288,
          "60": 2.0135139055869358,
          "61": 0.32761284088919446,
          "62": 3.1973890450351785,
          "63": -0.9085426749891709,
          "64": -2.0211418186827217,
          "65": 0.900790169007408,
          "66": -0.3329719985247757,
          "67": -1.7099877043178178,
          "68": -0.8813798935372045,
          "69": 0.3942409910178238,
          "70": -0.5490098675556208,
          "71": -0.590626991941008,
          "72": -1.43610035756955,
          "73": 0.4048870000930699,
          "74": 1.4114242991230919,
          "75": 1.6733205872369126,
          "76": 0.43126334396832544,
          "77": 1.4394591062008797,
          "78": -0.19199922168091174,
          "79": -0.6758538285337249
        }
      },
      "21": {
        "bias": -2.0774774936100666,
        "weights": {
          "0": 1.6741616705744986,
          "1": -0.35554377111643976,
          "2": 0.30652375206677324,
          "3": 1.4903449324448057,
          "4": 0.010508321182678988,
          "5": -0.16038407981672942,
          "6": 0.1989566087055638,
          "7": -0.08088328402372139,
          "8": -0.08469484256000302,
          "9": -0.1807857768572422,
          "10": 0.168186374049273,
          "11": 0.09879705218866064,
          "12": -0.07748777804189855,
          "13": -0.11743904942322088,
          "14": 0.11377029383803688,
          "15": -0.060494885688339134,
          "16": -0.5235346070311534,
          "17": -0.12031089917715879,
          "18": -0.03822817660377271,
          "19": 1.7323977847895895,
          "20": 1.671071343390624,
          "21": 0.79685233379751,
          "22": 0.38017264511019166,
          "23": 0.5718166180940966,
          "24": -0.7476522810838562,
          "25": -0.16266266990150774,
          "26": -0.11864458345448323,
          "27": -0.11367528756080007,
          "28": 0.04043198379727168,
          "29": -0.05809725989137356,
          "30": 2.236296307712269,
          "31": -5.099430383824902,
          "32": -2.2412462340546777,
          "33": 0.1777396517204138,
          "34": 2.679946613066931,
          "35": 0.6132036885077592,
          "36": -1.085057532260754,
          "37": 0.12285006933379392,
          "38": 1.0375074041355772,
          "39": -1.1529170591024136,
          "40": -1.312441791103872,
          "41": 0.7715895999693988,
          "42": 0.6117543579385011,
          "43": 1.5148009511756642,
          "44": 0.3289432696863239,
          "45": 0.21138504602682004,
          "46": -0.7718713497644657,
          "47": -0.09034122317240038,
          "48": 0.3181147856875829,
          "49": 0.8852438496213467,
          "50": 0.6320518444115181,
          "51": -0.34611418342754013,
          "52": 0.7875383325677844,
          "53": 0.8352742233967996,
          "54": -0.742018668487669,
          "55": 2.032340718933371,
          "56": 7.878011039005306,
          "57": -5.00146995974006,
          "58": -0.6615434959853325,
          "59": -2.3806870206529167,
          "60": -0.7161010773111753,
          "61": -1.4949026473284686,
          "62": -1.8451740009431101,
          "63": -1.3126526461071286,
          "64": -0.7392870789926601,
          "65": 0.01344112031224823,
          "66": -0.8366088490579969,
          "67": -0.6901818477696328,
          "68": -0.08243520456708418,
          "69": -0.8648509074416166,
          "70": -1.0147474006647161,
          "71": -1.7003727340972385,
          "72": -0.19534556843858678,
          "73": -0.48766811475483657,
          "74": 0.5547798032914523,
          "75": -0.15219670802165128,
          "76": -0.3239615751327192,
          "77": -0.05938784709403684,
          "78": -0.0791490578138284,
          "79": 0.31752517610011805
        }
      },
      "22": {
        "bias": -2.168706585046154,
        "weights": {
          "0": 0.9489580148860758,
          "1": 0.25938588605782387,
          "2": -0.050216457227588204,
          "3": 0.4453367186372023,
          "4": 0.1336489147191661,
          "5": -0.1275133990881432,
          "6": -0.07870683591390737,
          "7": -0.03175838863150959,
          "8": 0.11245110415670484,
          "9": -0.0158927522395384,
          "10": 0.1684601192294375,
          "11": 0.19042637415860958,
          "12": 0.04533750527029748,
          "13": 0.0300755051179859,
          "14": 0.0810577509325226,
          "15": -0.007036299988362249,
          "16": -0.44455024722699943,
          "17": -0.1871391897767354,
          "18": -0.04588020401207291,
          "19": 0.9365173345016652,
          "20": 1.047243635550181,
          "21": 0.33560323675342046,
          "22": 0.07574734560661107,
          "23": 0.34680439886863446,
          "24": -0.5145486292203265,
          "25": -0.043512664886134,
          "26": -0.04549800696761484,
          "27": 0.12566110141644413,
          "28": 0.166854780799244,
          "29": -0.08739966232520537,
          "30": 0.5861536298787683,
          "31": -0.49900913499059085,
          "32": 2.3294396543092084,
          "33": 0.731275975291434,
          "34": 0.7273851004043835,
          "35": 0.5634848747513442,
          "36": -0.5235936026446586,
          "37": -0.07324935853727481,
          "38": 0.13697292882470108,
          "39": 0.24598715665565776,
          "40": -0.30221381011594967,
          "41": -0.9613934431534465,
          "42": 0.49672070742407626,
          "43": 1.2985152972855523,
          "44": -0.10330452687090366,
          "45": 0.12932961007211494,
          "46": -0.15906606168174553,
          "47": 0.06531511034726507,
          "48": 0.2893599974894839,
          "49": 0.34864265167310876,
          "50": 0.3198732159543849,
          "51": -0.23965554628442534,
          "52": 0.5818739200098656,
          "53": 0.29515973543108653,
          "54": -0.27110534427415245,
          "55": -0.4211266260875426,
          "56": 0.8136531258453941,
          "57": -2.420377105393652,
          "58": -2.2894631969965538,
          "59": -2.109169069491146,
          "60": -1.5471727687650645,
          "61": -0.26359922964324733,
          "62": -0.3199441248603868,
          "63": -0.767459236994549,
          "64": -0.6704670423103146,
          "65": 0.1538560854908652,
          "66": -0.07375103120444367,
          "67": -0.25057948119883366,
          "68": -0.23426731641726922,
          "69": -0.24923216625765124,
          "70": -0.4453097266779709,
          "71": -0.3529110855647398,
          "72": -0.5881551002733006,
          "73": -0.15793685395366033,
          "74": 0.25024776384482217,
          "75": -0.26911700795604826,
          "76": -0.03634913768478861,
          "77": -0.2697571346049969,
          "78": -0.17933360465379242,
          "79": -0.04138994751973629
        }
      },
      "23": {
        "bias": -1.7086023946954332,
        "weights": {
          "0": -0.9174041556731375,
          "1": 0.013513373985514308,
          "2": -0.0565625394145238,
          "3": -0.4693372994325495,
          "4": 0.16534210096285948,
          "5": -0.027267634512919164,
          "6": 0.05990333238573997,
          "7": -0.19197084540286902,
          "8": -0.09815254738821402,
          "9": 0.08544428369867269,
          "10": 0.054581268420767604,
          "11": -0.0467726080185466,
          "12": -0.03527831746743901,
          "13": 0.09728480162310438,
          "14": -0.16614490948180807,
          "15": -0.12843013553045984,
          "16": 0.03398204178696817,
          "17": 0.18017262161730144,
          "18": 0.18675163705828285,
          "19": -0.6583225137010382,
          "20": -0.45592156317307875,
          "21": -0.2562468131475726,
          "22": -0.266273289057485,
          "23": -0.18614373212858934,
          "24": 0.4394341492577082,
          "25": 0.11502912903888149,
          "26": -0.10694138041451745,
          "27": 0.14753678548379676,
          "28": -0.1169779294038209,
          "29": -0.07958534450677444,
          "30": -0.5991595313040182,
          "31": -1.4220512577319726,
          "32": -3.1724353682599356,
          "33": -2.30862669127976,
          "34": -0.39619317834007417,
          "35": -0.9917840761170402,
          "36": -2.2064690184853406,
          "37": 2.308098436781732,
          "38": -0.3008526564564427,
          "39": -0.3860099039161934,
          "40": 0.9660985963333106,
          "41": 0.6413266620850958,
          "42": 0.8989456928858801,
          "43": -0.39354098945784016,
          "44": -0.8209197812907639,
          "45": -0.4268013868125087,
          "46": 0.6598369342662053,
          "47": -0.06820707289502743,
          "48": -0.16412913483066882,
          "49": 0.44619424795228035,
          "50": 0.26682232834400266,
          "51": 0.6799866324285886,
          "52": -0.36000772115987045,
          "53": -0.806871723468046,
          "54": 0.5860083524990799,
          "55": -1.8192513219197968,
          "56": -1.3562719854202745,
          "57": -1.2163226013856048,
          "58": 2.824038643270848,
          "59": 2.762415315056719,
          "60": 3.502446543426048,
          "61": 0.39808552495808003,
          "62": 1.5216965111012564,
          "63": 0.4399038642633437,
          "64": -0.27754861248866775,
          "65": -0.8155122953433872,
          "66": 0.23320156678070672,
          "67": -0.5856226918567778,
          "68": -0.2204317125957122,
          "69": 0.7876472583983143,
          "70": -0.027755585837363282,
          "71": -0.09757321318638745,
          "72": 0.5717597694467915,
          "73": 0.14982272300379557,
          "74": -0.12856278936794527,
          "75": 1.1176469586351714,
          "76": 0.43862638360998785,
          "77": 1.036408204010213,
          "78": -0.09386594425801807,
          "79": -0.1463672257406314
        }
      },
      "24": {
        "bias": -1.589554906681018,
        "weights": {
          "0": -0.23578509704922024,
          "1": -0.15448260717673581,
          "2": 0.2913418167082221,
          "3": -0.03895232109747174,
          "4": 0.06280158048167217,
          "5": -0.13348489536202557,
          "6": 0.19316598890209047,
          "7": 0.09644285049235995,
          "8": -0.02520362430295675,
          "9": -0.18619277125378178,
          "10": 0.10238097434838933,
          "11": -0.15701610653286446,
          "12": 0.03402329830182521,
          "13": -0.0035646905342726076,
          "14": -0.15638748304381292,
          "15": 0.031147481168261937,
          "16": 0.2814397478287087,
          "17": 0.0351565907881735,
          "18": 0.03720162298096044,
          "19": -0.3302154450847572,
          "20": -0.596977731593236,
          "21": -0.11211208388778719,
          "22": -0.11852498929077676,
          "23": 0.0919646131636985,
          "24": -0.01025264109299909,
          "25": -0.0837082083778615,
          "26": -0.1791037397256108,
          "27": -0.17471534140351808,
          "28": -0.01441126150592209,
          "29": -0.11431207404803426,
          "30": -1.8373163670456498,
          "31": -3.874364150591826,
          "32": 1.182607458944818,
          "33": -1.5892132245366895,
          "34": 0.2191718998989374,
          "35": 0.29606480249272105,
          "36": 0.24674337274725014,
          "37": -2.088375669524684,
          "38": 0.30551026342217513,
          "39": -1.2789456123092,
          "40": 4.1475327204553984,
          "41": 2.901567579391785,
          "42": -0.5186843776183894,
          "43": -1.3900692520952707,
          "44": 1.7441553687729918,
          "45": 1.5598703878855467,
          "46": -0.3610697505797255,
          "47": -1.0380430021468152,
          "48": 0.20542587974182833,
          "49": -0.24378663336527517,
          "50": -0.09791189782592787,
          "51": -0.18471647446948242,
          "52": 0.8968876890315894,
          "53": -0.35870203961258906,
          "54": 0.16710356606730134,
          "55": -0.31787329901933264,
          "56": 2.336801558122629,
          "57": 3.941355615111616,
          "58": 2.1596800348811525,
          "59": 3.6112874636698344,
          "60": -1.410092478961704,
          "61": -2.4768583896996086,
          "62": -1.4943319206708732,
          "63": -0.7852091051807015,
          "64": -1.1889644131927943,
          "65": -0.7828746940045243,
          "66": -2.8552711060612777,
          "67": -1.0321772274720231,
          "68": 1.916297203630636,
          "69": -0.5661460940919203,
          "70": -1.0660312841696986,
          "71": -0.3116402173989008,
          "72": 0.7859103121260693,
          "73": -1.198293646231567,
          "74": 1.0609585549351883,
          "75": -0.7652140517417324,
          "76": -0.06477236048356641,
          "77": -0.8467739748857244,
          "78": 0.881523217597049,
          "79": 0.7782986248601194
        }
      },
      "25": {
        "bias": -1.6379392761717602,
        "weights": {
          "0": -1.1748554090301033,
          "1": -0.15090032105390835,
          "2": -0.060828858740721796,
          "3": -0.9703871033251732,
          "4": 0.12446566757416958,
          "5": 0.12181656267243694,
          "6": 0.04388637889167599,
          "7": 0.021718489789837647,
          "8": -0.12526012677542422,
          "9": -0.13550579561371467,
          "10": -0.040371757150308524,
          "11": -0.192125811271396,
          "12": 0.05445585273108333,
          "13": -0.18843286732329734,
          "14": 0.0953878215954373,
          "15": -0.14826886163714006,
          "16": 0.21419931362568678,
          "17": 0.16675889684551112,
          "18": -0.07015803331621549,
          "19": -0.9147189809591749,
          "20": -0.9682204991495655,
          "21": -0.40343347259657264,
          "22": -0.013587244438682602,
          "23": -0.3283767421651006,
          "24": 0.34339919276654113,
          "25": -0.20040168014302262,
          "26": -0.012405085810282534,
          "27": 0.11303794171909719,
          "28": -0.14547704481034093,
          "29": 0.13876199049911828,
          "30": -0.8536664326087416,
          "31": 0.14436906045719086,
          "32": -3.5991416999410695,
          "33": 3.5348022767131555,
          "34": 3.1397094760909017,
          "35": 0.46593453839384175,
          "36": -4.633643101661418,
          "37": 2.7046813034511366,
          "38": 0.5315753652058071,
          "39": 0.4116625033415884,
          "40": -0.7401541507785268,
          "41": 0.8455952673065307,
          "42": 1.1832726250084296,
          "43": 0.2521608271359387,
          "44": -3.223778210637012,
          "45": -3.005557291878348,
          "46": 1.8974294252897883,
          "47": 1.5229879451887027,
          "48": 0.9417083029485271,
          "49": 0.4921546041033585,
          "50": -0.4182917225098905,
          "51": 1.6494827077862226,
          "52": -2.1591861497543654,
          "53": -1.0593727726446611,
          "54": 0.833171126179986,
          "55": -4.8685028546349205,
          "56": -5.533066498184922,
          "57": -6.845006666645119,
          "58": 4.606891136639082,
          "59": 4.733981595667138,
          "60": 9.175868261387707,
          "61": 1.4064081596391633,
          "62": 1.461100363096172,
          "63": -0.021424292777954768,
          "64": -2.210558196376772,
          "65": -1.2691963059020763,
          "66": -0.9197999034574094,
          "67": -0.7145533194087177,
          "68": -3.4504899143293315,
          "69": 0.37495165237180883,
          "70": 2.1368980253271643,
          "71": -0.005600777130573036,
          "72": -0.4002054314688863,
          "73": 2.698460069634009,
          "74": -2.3687769311603053,
          "75": 3.670094316231827,
          "76": 0.6242417981127113,
          "77": 2.034291307996238,
          "78": -0.9361134250842027,
          "79": -1.1548003356478593
        }
      },
      "26": {
        "bias": -1.08658846593659,
        "weights": {
          "0": -1.9091930908051107,
          "1": -0.23635238383464285,
          "2": -0.0931405146805912,
          "3": -0.9727713372490275,
          "4": 0.13012195793321235,
          "5": -0.057803334720919496,
          "6": 0.15858799295838227,
          "7": -0.04222336242112332,
          "8": 0.09951230315512899,
          "9": -0.0119813974863196,
          "10": -0.19881716847423203,
          "11": 0.1353812554848789,
          "12": -0.0793524983110852,
          "13": -0.030198232569742245,
          "14": -0.0611597948373479,
          "15": -0.012289689051298403,
          "16": 0.5805338325292876,
          "17": 0.05679325865928158,
          "18": 0.07202556949698657,
          "19": -1.2620476732474977,
          "20": -1.8006681744952167,
          "21": -0.7095942269609973,
          "22": -0.29767053517487957,
          "23": -0.16442734404698797,
          "24": 0.753729350242554,
          "25": -0.03980296931132751,
          "26": -0.19764418438113465,
          "27": 0.18451701275658908,
          "28": -0.166803347549098,
          "29": 0.06330089966515981,
          "30": -2.3146614145221664,
          "31": 3.004052684289213,
          "32": -3.207556978381302,
          "33": -5.444027171879938,
          "34": -2.329642789392318,
          "35": -2.7237842129098992,
          "36": -2.8231301058577807,
          "37": -0.898171068201415,
          "38": -2.1015512875989657,
          "39": -1.9694487631281763,
          "40": -0.9773944164259549,
          "41": 2.161733867207471,
          "42": -2.299255772418712,
          "43": -1.1396079555184657,
          "44": -2.1355852511636373,
          "45": -1.0052307434403185,
          "46": 1.2752687891137864,
          "47": 1.4562019179962926,
          "48": -0.681465524930726,
          "49": 0.42910270939605627,
          "50": 0.7624365918015458,
          "51": 0.9747739950069786,
          "52": -1.9706203343557815,
          "53": -0.530240520055372,
          "54": 0.9101689761345778,
          "55": -1.745808469547894,
          "56": -2.86131437794845,
          "57": -1.1609989922446722,
          "58": 4.827731579364364,
          "59": 3.980980120234677,
          "60": 8.066481513569173,
          "61": 1.8464558080475306,
          "62": 2.482743082594291,
          "63": 4.774891237857514,
          "64": -0.42527746367950725,
          "65": 0.4175228829509801,
          "66": -0.08638446234811756,
          "67": 1.3143462727102597,
          "68": 0.7108869751211564,
          "69": 3.2986529462107987,
          "70": 1.4147266843785309,
          "71": 1.2505045754618052,
          "72": 0.9062931353255447,
          "73": 1.2806249169852204,
          "74": -1.9409579205503198,
          "75": 1.3594585674065653,
          "76": -0.10102507596437259,
          "77": 0.7892321078847666,
          "78": 0.8656940478266674,
          "79": -1.2534682638760604
        }
      },
      "27": {
        "bias": -1.7872393042455204,
        "weights": {
          "0": -1.3564771333468593,
          "1": -0.6285295919493212,
          "2": -0.024114520034418607,
          "3": -0.6431382328990038,
          "4": -0.0618910886120315,
          "5": 0.19633685713159643,
          "6": -0.07122643520986624,
          "7": -0.05941272487556218,
          "8": -0.06479095498788442,
          "9": 0.16597766044782614,
          "10": 0.10453706809797075,
          "11": -0.18065247356375302,
          "12": -0.0032233951574665853,
          "13": 0.02012644330526739,
          "14": 0.1406381274150283,
          "15": -0.020870978012448582,
          "16": 0.6783565925834802,
          "17": -0.047192294690076006,
          "18": -0.15442814846402217,
          "19": -1.1426938342535264,
          "20": -1.9767686919743366,
          "21": -0.4643468275787399,
          "22": -0.2587187472214846,
          "23": -0.19661563164685036,
          "24": 0.47680926569205057,
          "25": 0.08894583670628442,
          "26": -0.06583098923958622,
          "27": 0.16304608585731428,
          "28": -0.09869362625058642,
          "29": -0.1930685400326659,
          "30": -2.7257577534271253,
          "31": -0.6840442311544042,
          "32": -1.273869934452204,
          "33": 0.26595768536068215,
          "34": 0.460929874244787,
          "35": 0.9349014857366128,
          "36": -0.23774714897794602,
          "37": -2.6319588866622863,
          "38": 0.7714030861708019,
          "39": -1.3028795646190314,
          "40": 0.05271643885219277,
          "41": 1.4083154833123286,
          "42": -2.259700978330313,
          "43": -1.5515415750395725,
          "44": 1.2792582496507798,
          "45": -0.23244010439557802,
          "46": -0.006236648583305479,
          "47": 0.2827402821944429,
          "48": 0.28301673786246906,
          "49": -1.0139205585942412,
          "50": 0.03508504541577317,
          "51": 0.5923451956211765,
          "52": -0.8041870545052088,
          "53": -0.3037196806509455,
          "54": 0.6804486674672015,
          "55": 1.4070478456570394,
          "56": -2.014862269152243,
          "57": 3.074620938138572,
          "58": 2.945020965625502,
          "59": 4.077598678998831,
          "60": 1.9540514145286696,
          "61": -0.9992412572671906,
          "62": -0.016393520864159274,
          "63": 0.6533333996131967,
          "64": 0.7696668376636787,
          "65": -0.20347860852159388,
          "66": -0.6246291538352673,
          "67": 0.4674100872628985,
          "68": 1.5495500482930205,
          "69": 0.6672704747496531,
          "70": -0.04849236866217357,
          "71": -0.20757586253722987,
          "72": -0.883280718617011,
          "73": 0.18767410321883157,
          "74": -0.1531043521352299,
          "75": -0.05759794917512789,
          "76": -0.7819712790994711,
          "77": -0.3227951963205166,
          "78": 0.46938314441607626,
          "79": -0.4848950386670105
        }
      },
      "28": {
        "bias": -1.3147287197473498,
        "weights": {
          "0": -0.5878352568718268,
          "1": 0.6032858760891416,
          "2": -0.27771099988442494,
          "3": -0.6194444359987045,
          "4": 0.09787431616230874,
          "5": -0.10830146800504459,
          "6": -0.16312463769414196,
          "7": -0.09022195581521704,
          "8": -0.022461449121809446,
          "9": 0.1541273316673692,
          "10": 0.13113221442622341,
          "11": 0.08318580391347474,
          "12": 0.15479364257925737,
          "13": 0.06639859563191042,
          "14": -0.04856435805647985,
          "15": -0.027510056723356158,
          "16": 0.2777694324066743,
          "17": -0.17487898668192423,
          "18": -0.0958158613315174,
          "19": -0.68214423115132,
          "20": -0.6418395868414466,
          "21": -0.3357677182711176,
          "22": -0.11282684294529333,
          "23": -0.030950403993889045,
          "24": 0.1961678961784401,
          "25": 0.19168324830074182,
          "26": -0.05475814892414497,
          "27": 0.07016588424653161,
          "28": -0.042411586080984914,
          "29": 0.19626558171808137,
          "30": -2.73023964623684,
          "31": 0.511989497481607,
          "32": -1.314027034345909,
          "33": -2.738858468826207,
          "34": -0.8098485724292506,
          "35": -4.471810242001196,
          "36": -1.737362269375913,
          "37": -1.563254245043297,
          "38": 1.0811816830209275,
          "39": 1.0835299575804558,
          "40": -2.160274806330217,
          "41": -1.3834339151812398,
          "42": -1.6945987920299908,
          "43": 0.32216277794157355,
          "44": -3.1357894369871286,
          "45": -2.3369258538846056,
          "46": 0.6453216501383211,
          "47": 3.0947562611945867,
          "48": 0.1669908787840663,
          "49": 1.0032332132715893,
          "50": 1.7449335483957986,
          "51": -0.30047779048366885,
          "52": -2.0373534300645955,
          "53": 0.6193840808919602,
          "54": 0.0369484085415396,
          "55": 2.7026884635416963,
          "56": -2.243370774232025,
          "57": -4.551861953615289,
          "58": -0.026947278186349146,
          "59": 0.7258722942594404,
          "60": 6.05575230646084,
          "61": 5.5800688410003545,
          "62": 5.34620347678421,
          "63": 1.6456417213771026,
          "64": 0.3761860346518104,
          "65": 0.15231137003544803,
          "66": 2.203930749113346,
          "67": 0.5837604234472595,
          "68": -1.7238329146920364,
          "69": 1.9512031971642356,
          "70": 2.211996964340549,
          "71": 0.22068485073506897,
          "72": -2.694248120917022,
          "73": 2.141844941803285,
          "74": -1.4596097619412314,
          "75": 0.9633639261580607,
          "76": -0.49130929393504413,
          "77": 0.8412155237980736,
          "78": -0.28874732915720885,
          "79": -1.8934697218496062
        }
      },
      "29": {
        "bias": -1.3669768017879647,
        "weights": {
          "0": -3.1092480699551306,
          "1": 0.4504988926834265,
          "2": -0.2445297420104283,
          "3": -1.7612375475225506,
          "4": -0.025480776424332482,
          "5": 0.11594581713178403,
          "6": -0.08874312786113743,
          "7": 0.060694519007736036,
          "8": 0.17051032499371033,
          "9": -0.18663467135262224,
          "10": -0.12741777442974103,
          "11": 0.04602181971869568,
          "12": -0.054288814011816816,
          "13": 0.058515350993155635,
          "14": 0.06232029810650552,
          "15": -0.12577436840849626,
          "16": 1.2145341713371114,
          "17": 0.050543918026584644,
          "18": 0.006100258336468768,
          "19": -2.4386343715677636,
          "20": -2.5922787948177164,
          "21": -1.4027877020167818,
          "22": -0.305953134733776,
          "23": -0.3795773861893741,
          "24": 1.7544360746807415,
          "25": -0.11121101384702699,
          "26": 0.08646686502084773,
          "27": 0.1175975487236896,
          "28": 0.012898073209421962,
          "29": -0.10576888885665348,
          "30": -0.8837077803294603,
          "31": 5.53202477169068,
          "32": -5.473371625586505,
          "33": -9.926492540715888,
          "34": -3.908782338707116,
          "35": -4.672213855630433,
          "36": -5.4494214894998985,
          "37": -0.5540488752610201,
          "38": -3.6320954036821798,
          "39": -1.7154109051149642,
          "40": 0.8259431856536612,
          "41": 3.531194460570285,
          "42": -1.4638412154529914,
          "43": -2.311915925579305,
          "44": -0.46370632013980667,
          "45": -0.1484833954382082,
          "46": 1.0807469126780047,
          "47": -0.1309818413750718,
          "48": -2.3644458654965765,
          "49": 0.057524659374658976,
          "50": 0.8592267441429292,
          "51": 0.944553531351685,
          "52": -1.932309821802951,
          "53": -1.1914113870727554,
          "54": 0.6547872305011465,
          "55": 2.438200937309065,
          "56": -1.4261486226080455,
          "57": 1.7922595422155545,
          "58": 3.9471696862138956,
          "59": 3.849232848759354,
          "60": 6.838722155819973,
          "61": 4.1575238611368,
          "62": 0.7471730146123013,
          "63": 8.44138084521304,
          "64": 1.8494460304901386,
          "65": 0.6525450160938728,
          "66": -1.2081879391247596,
          "67": 0.48875227523973824,
          "68": 1.242915625212866,
          "69": 2.231447230312942,
          "70": 0.9134284247802249,
          "71": 1.5142218691152354,
          "72": 2.766818569542204,
          "73": -0.3452694904814625,
          "74": -1.5672416405787488,
          "75": 0.06891623639049738,
          "76": 0.1409385675518827,
          "77": 0.7358592996505037,
          "78": 1.365667699860447,
          "79": -0.5355466156724945
        }
      },
      "30": {
        "bias": -2.0778541950481304,
        "weights": {
          "0": -0.3737472809999132,
          "1": -0.31549360230982293,
          "2": 0.2086920032320873,
          "3": -0.18453961022938553,
          "4": -0.18148652279314229,
          "5": 0.03556768413535097,
          "6": 0.04164614841517089,
          "7": -0.19779324318919872,
          "8": 0.13642528402833243,
          "9": 0.16005058653464027,
          "10": 0.07666879357222933,
          "11": -0.12390931307464809,
          "12": 0.13376394729946645,
          "13": 0.058988379591239426,
          "14": -0.18317895998634431,
          "15": -0.16946341150940933,
          "16": 0.3050098021235088,
          "17": 0.08752265474192415,
          "18": -0.01836535352296213,
          "19": -0.37484475507130083,
          "20": -0.7654861720722992,
          "21": -0.43227660649447813,
          "22": 0.04912857874586315,
          "23": -0.20470389168761993,
          "24": 0.1796945086792098,
          "25": -0.016004481834091457,
          "26": 0.04722262334148855,
          "27": -0.1600597996649535,
          "28": 0.04057809628574664,
          "29": 0.144917575741012,
          "30": -1.878990643101498,
          "31": -1.0426588648304616,
          "32": -0.8707406364195054,
          "33": 0.5165474513971781,
          "34": -0.3372864804743973,
          "35": -0.12011689359710558,
          "36": 0.4492527751471484,
          "37": -1.1205143544421539,
          "38": 0.21673726445716673,
          "39": -0.5274313432993506,
          "40": 3.1056813321675567,
          "41": 1.5643210454891754,
          "42": -0.43614180165224475,
          "43": -1.4430927357089434,
          "44": 1.8090590909121629,
          "45": 1.4612036616566888,
          "46": 0.04268117196890688,
          "47": -0.9876704073371123,
          "48": 0.12818264559614448,
          "49": -0.5306007743539574,
          "50": -0.5483856173989469,
          "51": 0.07262885867421963,
          "52": 0.23282864103507603,
          "53": -0.6732038000416958,
          "54": 0.04617760918353462,
          "55": -0.7868379879175157,
          "56": 1.8075210884694974,
          "57": 4.043043065663208,
          "58": 1.9574916516441911,
          "59": 2.726530645343975,
          "60": -0.9375015435788779,
          "61": -2.0842347177510834,
          "62": -1.5533110670009587,
          "63": -0.7291441704131256,
          "64": 0.0397789636373163,
          "65": -1.0784200071931984,
          "66": -1.6467381307602145,
          "67": -0.8139775428148001,
          "68": 1.4495894980458062,
          "69": -0.5255404745198333,
          "70": -0.6149751524246455,
          "71": -0.33411607833185425,
          "72": 0.913013707459859,
          "73": -0.6203736496160599,
          "74": 0.6456685583509386,
          "75": -0.627700877161473,
          "76": -0.1398424668278647,
          "77": -0.5611449170611758,
          "78": 0.4486570078482367,
          "79": 0.5907661036360428
        }
      },
      "31": {
        "bias": -2.6311418394716557,
        "weights": {
          "0": 2.6157506369947745,
          "1": 0.2571888318337729,
          "2": 0.4331328829693284,
          "3": 1.7091705073686532,
          "4": 0.14429376500830685,
          "5": 0.048241143040646334,
          "6": -0.034968111629556015,
          "7": 0.0701394018709417,
          "8": -0.11494969885703928,
          "9": 0.08757002008819104,
          "10": -0.07678657581158072,
          "11": 0.09701933410641106,
          "12": 0.037322981371954805,
          "13": -0.04121291494180063,
          "14": 0.07749416253773517,
          "15": 0.01729494265031989,
          "16": -1.123414558459849,
          "17": -0.1899268930484784,
          "18": -0.17849490554139402,
          "19": 2.25262407982904,
          "20": 3.1448389618894965,
          "21": 0.897818301288121,
          "22": 0.21525575766478597,
          "23": 0.3551748948733688,
          "24": -1.1949071345616606,
          "25": -0.03502245183590312,
          "26": 0.18392308413617914,
          "27": 0.1441223209104253,
          "28": -0.05526300406498852,
          "29": 0.09775285424544318,
          "30": 2.925918109558463,
          "31": -1.9905446298019494,
          "32": -0.8639817878868358,
          "33": -2.2677158457545823,
          "34": -0.5384675272692597,
          "35": 0.2960097673783853,
          "36": -1.5971668417160934,
          "37": -1.0576120211298439,
          "38": -0.6954706392002825,
          "39": -0.1558610809618574,
          "40": -0.9303255641573417,
          "41": -0.30416137083865824,
          "42": 0.591735185492174,
          "43": 1.5965708056238797,
          "44": 0.39908132526567436,
          "45": 0.5351673401511413,
          "46": -0.5825739335394664,
          "47": 0.23071297305073196,
          "48": 0.10020973700654211,
          "49": 1.3937001561372513,
          "50": 0.44720175133685747,
          "51": -0.5530348273512594,
          "52": 0.8189497001053313,
          "53": 0.5895285943555595,
          "54": -0.6549646507876695,
          "55": 4.479885960090824,
          "56": 5.318446591714621,
          "57": -5.2308161423356,
          "58": -2.9724154829862184,
          "59": -2.737646774382429,
          "60": -2.4143932936270094,
          "61": -1.4345158204970883,
          "62": -1.6910276169934688,
          "63": -1.0222714769002712,
          "64": -0.8582708718011446,
          "65": 0.15577886270420327,
          "66": -0.2893537007595148,
          "67": -0.25779165391672354,
          "68": -0.24192855536914143,
          "69": -0.6871054797447751,
          "70": -0.6897239730834426,
          "71": -0.9734310145489041,
          "72": 0.3746918795896969,
          "73": -0.6944299364421475,
          "74": 0.6654880364600892,
          "75": -0.4009346858669149,
          "76": 0.15873794748960704,
          "77": -0.18379588861107557,
          "78": 0.020180052447828906,
          "79": 0.3678549762053653
        }
      },
      "32": {
        "bias": -0.6085996625652121,
        "weights": {
          "0": 1.3542275976270342,
          "1": -0.14897315657525587,
          "2": 0.5611164131023367,
          "3": 0.9349808031052977,
          "4": 0.0004989807417491151,
          "5": 0.005942888344190361,
          "6": -0.08872109961608735,
          "7": 0.05270072807612258,
          "8": 0.10208789848879168,
          "9": 0.17450179156017004,
          "10": -0.0011470522585742826,
          "11": -0.07883805024755111,
          "12": 0.08889246764196124,
          "13": -0.18860275310533395,
          "14": -0.1533264550298956,
          "15": -0.08996398080825606,
          "16": -0.1987841403544245,
          "17": 0.15670018723794876,
          "18": 0.09526798402779793,
          "19": 1.0204643797938195,
          "20": 0.7987853656985179,
          "21": 0.3295688012339978,
          "22": 0.27186413380310276,
          "23": 0.1950467624265882,
          "24": -0.32809512263507123,
          "25": -0.08555238798105222,
          "26": 0.17102658187721748,
          "27": 0.16393252927092763,
          "28": -0.0039967363253739915,
          "29": 0.15509710245937375,
          "30": 11.857940405994725,
          "31": -2.8459882925541002,
          "32": 0.06355367890318125,
          "33": -3.9327680166140078,
          "34": 8.324029413914678,
          "35": 1.6919992883911135,
          "36": 0.9993137053539213,
          "37": -2.942942693904773,
          "38": 0.5990904156307417,
          "39": -2.4066505848134,
          "40": -0.08115071830801171,
          "41": 1.6540803722970905,
          "42": 2.8164115922982087,
          "43": -0.1471148695900374,
          "44": 0.5237132495919844,
          "45": 2.1077807173660723,
          "46": -1.5700426874094573,
          "47": -1.2796639384737478,
