{
  "layers": [
    {
      "0": {},
      "1": {},
      "2": {},
      "3": {},
      "4": {},
      "5": {},
      "6": {},
      "7": {},
      "8": {},
      "9": {},
      "10": {},
      "11": {},
      "12": {},
      "13": {},
      "14": {},
      "15": {},
      "16": {},
      "17": {},
      "18": {},
      "19": {},
      "20": {},
      "21": {},
      "22": {},
      "23": {},
      "24": {},
      "25": {},
      "26": {},
      "27": {},
      "28": {},
      "29": {},
      "30": {},
      "31": {},
      "32": {},
      "33": {},
      "34": {},
      "35": {},
      "36": {},
      "37": {},
      "38": {},
      "39": {},
      "40": {},
      "41": {},
      "42": {},
      "43": {},
      "44": {},
      "45": {},
      "46": {},
      "47": {},
      "48": {},
      "49": {},
      "50": {},
      "51": {},
      "52": {},
      "53": {},
      "54": {},
      "55": {},
      "56": {},
      "57": {},
      "58": {},
      "59": {},
      "60": {},
      "61": {},
      "62": {},
      "63": {},
      "64": {},
      "65": {},
      "66": {},
      "67": {},
      "68": {},
      "69": {},
      "70": {},
      "71": {},
      "72": {},
      "73": {},
      "74": {},
      "75": {},
      "76": {},
      "77": {},
      "78": {},
      "79": {}
    },
    {
      "0": {
        "bias": -2.8317190469106963,
        "weights": {
          "0": 0.020262744150999056,
          "1": -0.019929947426225506,
          "2": -0.1843575817169072,
          "3": 0.05951844945184707,
          "4": -0.17288509103289107,
          "5": -0.011539546011645377,
          "6": -0.15830310280338838,
          "7": -0.13580996212975444,
          "8": -0.17388324743933598,
          "9": -0.05498612208049619,
          "10": 0.158941153894125,
          "11": 0.09706899093984472,
          "12": 0.04570487625809605,
          "13": -0.1835131636061954,
          "14": 0.16270816155932738,
          "15": -0.15161217519011308,
          "16": 0.10918479894051826,
          "17": -0.13042846184919987,
          "18": -0.0676840197486009,
          "19": 0.19057470866029363,
          "20": -0.019283355385821873,
          "21": -0.18614722938266381,
          "22": -0.11902156918947458,
          "23": -0.012683882544016195,
          "24": -0.011032704157732238,
          "25": -0.021389610198508723,
          "26": -0.06923083007524962,
          "27": 0.053049154517304735,
          "28": 0.043225070617442865,
          "29": -0.042995096111993154,
          "30": -0.28508438109471346,
          "31": -0.01065461093269186,
          "32": 0.4012655938267235,
          "33": 0.12810072889799043,
          "34": -0.2670288785602855,
          "35": 0.4680387608164132,
          "36": 0.3499153829903065,
          "37": -0.14918776663734948,
          "38": 0.24154104800699236,
          "39": 0.11572797818515908,
          "40": 0.16105054405742567,
          "41": -0.2690532876782136,
          "42": -0.28228522456269795,
          "43": -0.06329922304520053,
          "44": 0.1346632028564289,
          "45": 0.2888096491846987,
          "46": -0.144831014052442,
          "47": 0.0039409205824986245,
          "48": -0.027071924873725298,
          "49": -0.021809477193418365,
          "50": 0.08770147515492231,
          "51": -0.20351145804840715,
          "52": -0.06977324028267827,
          "53": 0.08747257299540334,
          "54": -0.018188249481978475,
          "55": -1.0201422684030899,
          "56": -0.07003007396745337,
          "57": -0.4553565960666277,
          "58": -0.620733094203145,
          "59": -0.02666592453051954,
          "60": -0.7953017474220722,
          "61": -0.7046366507285959,
          "62": -0.22798041879237627,
          "63": -0.395535574174226,
          "64": 0.05253859337213028,
          "65": 0.018146932632857375,
          "66": 0.047936450292653615,
          "67": 0.22527453494442634,
          "68": 0.2207509034586847,
          "69": 0.005961606089663595,
          "70": -0.10015242963517015,
          "71": -0.2593098678386738,
          "72": 0.20546576010154385,
          "73": -0.1432352499352657,
          "74": 0.13165475247596184,
          "75": -0.04060246669765577,
          "76": 0.11513383986960311,
          "77": -0.2294586203823046,
          "78": -0.12933485414008375,
          "79": -0.020379679851016432
        }
      },
      "1": {
        "bias": -0.526229265755046,
        "weights": {
          "0": -1.1555541237458384,
          "1": -0.26707227711018466,
          "2": 1.2600342686353398,
          "3": -0.9577661861459342,
          "4": -0.0170638506375698,
          "5": 0.09601196404208355,
          "6": -0.06147084277491999,
          "7": 0.12293044288043664,
          "8": -0.18656451397677928,
          "9": -0.14653562828728958,
          "10": 0.05297858575672426,
          "11": 0.020350646256245414,
          "12": -0.11830960349253782,
          "13": 0.10403621915354855,
          "14": 0.06464676420314913,
          "15": 0.15880804067486248,
          "16": 0.5862030141551189,
          "17": 0.004442912361036224,
          "18": 0.11682590206787899,
          "19": -1.1161472978872007,
          "20": -0.7731259544922755,
          "21": -0.21589117666024948,
          "22": -0.03571754837750874,
          "23": -0.09873572501818179,
          "24": 0.5977553353930999,
          "25": -0.143892065577952,
          "26": -0.014665140307747286,
          "27": 0.14843186845384063,
          "28": -0.061293151528130786,
          "29": 0.04897838043182959,
          "30": -2.6747505440958284,
          "31": -5.903973844048628,
          "32": 1.139835129618533,
          "33": 2.925425709633691,
          "34": -1.7131249257525631,
          "35": 1.0482483612989766,
          "36": -2.435400105025268,
          "37": -3.8672066139258074,
          "38": -0.2085688766000064,
          "39": 1.8862461295504793,
          "40": -1.1754575765613977,
          "41": -0.14650741001154396,
          "42": -0.07142153967151083,
          "43": 1.5747638930354064,
          "44": -2.099833135716334,
          "45": -2.854134620398897,
          "46": 0.9620685230661169,
          "47": -0.2268236625250143,
          "48": 1.3726622463955445,
          "49": 0.14356957767321935,
          "50": 1.544735108843517,
          "51": 1.158315933742966,
          "52": 0.05829313968414859,
          "53": 1.291031754042937,
          "54": 1.4826909919521858,
          "55": 0.35458356991885814,
          "56": -0.742030415541336,
          "57": -0.4583266691592437,
          "58": 7.640773109792527,
          "59": 0.762312012371631,
          "60": 6.391687539162767,
          "61": 2.514224639758568,
          "62": 3.23102494261444,
          "63": -3.9087177414191725,
          "64": -4.587071728806856,
          "65": 0.17346487421036963,
          "66": -2.0646054005997554,
          "67": 0.05690739333054561,
          "68": -1.0758107292618637,
          "69": 0.6215744393773304,
          "70": 2.2486700398931605,
          "71": -0.3388289319385682,
          "72": -1.9510767899313448,
          "73": 0.0064967568705545774,
          "74": -0.06345285867598761,
          "75": 1.4261362425031323,
          "76": -1.3435201436141353,
          "77": 1.7797009809827162,
          "78": -0.8069269626124305,
          "79": -0.2261104462737957
        }
      },
      "2": {
        "bias": -2.18847816380459,
        "weights": {
          "0": -0.293650787671457,
          "1": -0.255456986545236,
          "2": -0.11254967702088065,
          "3": -0.31903740166908484,
          "4": 0.10303639980317933,
          "5": -0.14292807119837792,
          "6": -0.14274057087287934,
          "7": 0.17337503880752286,
          "8": -0.1274044215957039,
          "9": -0.14705025553069595,
          "10": 0.09293946992065427,
          "11": 0.04136757873514396,
          "12": -0.02888796575736982,
          "13": 0.1205811493852626,
          "14": 0.10940607013092535,
          "15": -0.17424586602768832,
          "16": 0.048788360373041344,
          "17": 0.0445251054174152,
          "18": 0.03666444112197016,
          "19": -0.14061126371491206,
          "20": -0.6820478716224968,
          "21": -0.3445883287101581,
          "22": 0.1560004337461786,
          "23": -0.09381996466090467,
          "24": 0.31584492379196283,
          "25": 0.1504406734395086,
          "26": 0.04522224772884069,
          "27": 0.0985823212179747,
          "28": -0.013595214149148514,
          "29": 0.17379069409913334,
          "30": -0.09257506429627672,
          "31": -1.1303921645247668,
          "32": 1.1946429530817282,
          "33": -0.5218584274637297,
          "34": -1.361056045097961,
          "35": 1.0700788537010546,
          "36": 0.9821860590096032,
          "37": -0.7461373506677059,
          "38": -0.015717879054453324,
          "39": -0.7822352131927985,
          "40": 1.1148601059068113,
          "41": 0.7836174228723037,
          "42": -0.522789248268634,
          "43": -0.9196434638669795,
          "44": 0.21244169246519287,
          "45": -0.2312867863151272,
          "46": 0.12337674589055157,
          "47": -0.5929504219269771,
          "48": -0.4221989984713179,
          "49": -0.37249074619839123,
          "50": -0.322762815242174,
          "51": -0.5225239943194945,
          "52": -0.5441499030223752,
          "53": -0.25083446834013196,
          "54": -0.07309086552792883,
          "55": -0.206444623213145,
          "56": 0.4647343271698894,
          "57": 3.0613765226786156,
          "58": 0.6150498055180137,
          "59": 1.2912068664039644,
          "60": -1.2230538301266118,
          "61": -0.5691537734246418,
          "62": 0.27890368224458645,
          "63": -0.35359977982312274,
          "64": 0.320443493345212,
          "65": 0.2200147844966795,
          "66": 0.1791415369133274,
          "67": -0.37741956952402955,
          "68": -0.07704700058176116,
          "69": -0.2293617701877229,
          "70": -0.3504436789091445,
          "71": -0.14912521713787363,
          "72": -0.09452543401990461,
          "73": -0.07566991253510534,
          "74": 0.11129919601004233,
          "75": -0.36728726041740395,
          "76": 0.1915554291721081,
          "77": -0.16336662283949094,
          "78": -0.020848718600937788,
          "79": 0.04478811894336314
        }
      },
      "3": {
        "bias": -1.8248201745502042,
        "weights": {
          "0": -0.3475852370049315,
          "1": 0.1917184299596973,
          "2": -0.8408849743351625,
          "3": -0.24717421512381083,
          "4": 0.15141739847020166,
          "5": 0.03558739959197347,
          "6": -0.07433010717857239,
          "7": -0.044116558486739066,
          "8": -0.1809616078778296,
          "9": 0.14942754235751432,
          "10": 0.18967886401638945,
          "11": 0.10978288266973618,
          "12": 0.03778694995684048,
          "13": -0.08624531841350641,
          "14": 0.1414455995624631,
          "15": -0.12610203694262506,
          "16": 0.5005543124949287,
          "17": -0.14404832159145015,
          "18": 0.1293692284347252,
          "19": -0.0013798723236085623,
          "20": -0.5455433183778478,
          "21": -0.787978311997678,
          "22": 0.30380728007095087,
          "23": 0.07098068431893952,
          "24": 0.21386227943658345,
          "25": 0.16161663520127512,
          "26": 0.0019510075132780334,
          "27": -0.04307572220763608,
          "28": 0.012513368984163388,
          "29": 0.06565746759130804,
          "30": 0.31654110413345865,
          "31": 6.642435410592833,
          "32": -1.8779817663951632,
          "33": -6.2797334285242075,
          "34": -3.112982066283834,
          "35": 3.1378714283903055,
          "36": 1.6838212065621925,
          "37": -0.15742511742211432,
          "38": 0.30062477319064085,
          "39": -1.2079709950817485,
          "40": 1.9966729692125473,
          "41": 0.624539648042293,
          "42": 1.4117649273955397,
          "43": -3.2577850439188247,
          "44": 0.3235543589264189,
          "45": 0.08375003534066536,
          "46": 0.7680361977326183,
          "47": -0.5797661480266174,
          "48": -0.028536556212320176,
          "49": 0.2926494196608721,
          "50": -0.424608451170924,
          "51": -0.8982867431214019,
          "52": -0.5348650195443077,
          "53": -0.7809484806924423,
          "54": 0.1692482242792379,
          "55": 0.057217833687210715,
          "56": 2.574948671441657,
          "57": 1.5424434848932183,
          "58": 3.7524451631681344,
          "59": 3.3171438775863504,
          "60": -3.765846853151224,
          "61": 0.13838862217991688,
          "62": -1.4353576697947419,
          "63": -1.647691869670258,
          "64": 0.8982301308417759,
          "65": -1.0532521941143114,
          "66": -0.7920144242866517,
          "67": -1.288005217867483,
          "68": -0.552148194943125,
          "69": -0.49839299295884176,
          "70": -0.7955301708356418,
          "71": 0.042444934262450364,
          "72": 0.4645273055687518,
          "73": 0.30855351281472526,
          "74": -0.14781640948459943,
          "75": -0.4081243519462713,
          "76": 0.13246769081980567,
          "77": -0.30453161156620917,
          "78": 0.24314158445347087,
          "79": -0.3933488090834041
        }
      },
      "4": {
        "bias": -1.81120190886755,
        "weights": {
          "0": -0.055370621193339305,
          "1": -0.02253479330813583,
          "2": -0.15415122858843905,
          "3": -0.17814826108118675,
          "4": 0.10938181465152448,
          "5": -0.07006939959739109,
          "6": 0.030036205445205855,
          "7": 0.19017077568019003,
          "8": 0.16383750382398798,
          "9": -0.010810734981046177,
          "10": -0.028727631477716203,
          "11": 0.025067164453904056,
          "12": -0.029508886348099145,
          "13": -0.09108727119278566,
          "14": -0.17621717527786745,
          "15": -0.0009499886560581372,
          "16": 0.05564272170220891,
          "17": 0.15341810047734492,
          "18": 0.11765099631756346,
          "19": -0.003296607345668306,
          "20": -0.54331835658512,
          "21": -0.2164270950129235,
          "22": -0.021496790993334413,
          "23": 0.1045659406578785,
          "24": 0.03147268102834375,
          "25": -0.16825275504576875,
          "26": -0.003912240770276128,
          "27": 0.03798321624613617,
          "28": 0.0007117373760429925,
          "29": 0.10894067451431048,
          "30": -0.3568967080963032,
          "31": 0.8119231341982099,
          "32": 3.7362996542111233,
          "33": -0.27719504057541894,
          "34": -0.29658241914094513,
          "35": 2.1937536345573707,
          "36": 0.5836916016200749,
          "37": 0.22042514497444285,
          "38": 0.06808786450742345,
          "39": -0.3107692582602029,
          "40": 0.4888772347351664,
          "41": 0.23974649569699436,
          "42": -0.48472089174941285,
          "43": -2.252337366037965,
          "44": 0.6786007001268447,
          "45": 0.40568859567739646,
          "46": 0.3058655047415739,
          "47": -0.5925976745856631,
          "48": -0.4380641466526734,
          "49": -0.22498519472757728,
          "50": -0.019529555030063397,
          "51": -0.22213614019660416,
          "52": -0.15016967479480361,
          "53": -0.6004024884445025,
          "54": 0.1319549373777636,
          "55": -1.654238276674954,
          "56": -0.6266579695629165,
          "57": 2.075019267765056,
          "58": -1.2208382288670392,
          "59": 1.8615602752379359,
          "60": -2.006788477388818,
          "61": -1.600103153266742,
          "62": -0.7696564121997238,
          "63": -0.1494015030696956,
          "64": 1.1858926587201235,
          "65": -0.14238513405419045,
          "66": 0.9414066479989429,
          "67": -0.22845792855274338,
          "68": 0.292564472763437,
          "69": -0.8509037899613976,
          "70": -0.7741836666108551,
          "71": -0.4405697066976484,
          "72": 0.4305823682063974,
          "73": -0.15182405757362996,
          "74": -0.20176528213391345,
          "75": -0.5398804844069295,
          "76": 0.1804578086377546,
          "77": -0.588945456543276,
          "78": -0.07770097978127014,
          "79": -0.16134990347454098
        }
      },
      "5": {
        "bias": -1.3858133203118188,
        "weights": {
          "0": -0.24661051144344148,
          "1": 0.30125090994733045,
          "2": 0.1625037038559326,
          "3": -0.18936946229851156,
          "4": -0.16266285271277278,
          "5": -0.17351805973142453,
          "6": 0.1373245181324254,
          "7": -0.14218571754602874,
          "8": -0.11149464124069947,
          "9": 0.0509163108402112,
          "10": -0.024559784629319015,
          "11": 0.17059808515499109,
          "12": -0.14968091676195955,
          "13": 0.07710492745529046,
          "14": -0.005734125669213885,
          "15": 0.031809910634754524,
          "16": 0.2996736280161841,
          "17": -0.053614698126769576,
          "18": -0.12051120331536273,
          "19": -0.44952936711076164,
          "20": 0.27767923941179856,
          "21": 0.04855517061500014,
          "22": -0.13087717802647017,
          "23": 0.06828374189159461,
          "24": 0.08791981785172905,
          "25": -0.14587259189696317,
          "26": 0.02112146468377779,
          "27": -0.015234242677348641,
          "28": 0.0018821101933314342,
          "29": -0.052467116117715956,
          "30": -5.871112296720707,
          "31": 6.683785855214153,
          "32": -5.147314558783702,
          "33": 6.613948510625705,
          "34": -0.8439900319945869,
          "35": -4.8667631713817485,
          "36": -0.8960712488308643,
          "37": 0.4164191499736662,
          "38": 1.390860757487702,
          "39": 2.3507532230974126,
          "40": -2.649542262462622,
          "41": -0.8301344488985545,
          "42": 1.2066161870447278,
          "43": -2.1830494394573083,
          "44": 0.1123415749451107,
          "45": -0.6753683171521953,
          "46": 0.25225501530810385,
          "47": 0.3681165493181009,
          "48": 2.452937302319624,
          "49": 2.3144378842223072,
          "50": 0.40886243215262486,
          "51": 1.9375094469343432,
          "52": 0.0014430617657471558,
          "53": 0.35984949509459085,
          "54": 0.17764566165022921,
          "55": -1.2209185729365797,
          "56": -1.8230158334925415,
          "57": -3.748647338464392,
          "58": 6.634878710918613,
          "59": -1.7365578292301713,
          "60": 1.901222347986509,
          "61": 1.369225920650673,
          "62": -2.301762393905845,
          "63": 3.34974059827553,
          "64": 1.411407944216408,
          "65": -1.5881702966148186,
          "66": -2.925345885313438,
          "67": 0.8785390219531326,
          "68": -0.26274160922355955,
          "69": -0.7534274055708107,
          "70": 0.40823823518088437,
          "71": 0.044294957618164016,
          "72": -1.0836227260764535,
          "73": -0.5339918316497061,
          "74": -0.5436610768093587,
          "75": 0.9979655174120602,
          "76": -0.2141637491416733,
          "77": -0.29510243467810526,
          "78": -1.1044197003716785,
          "79": -0.5723053998006755
        }
      },
      "6": {
        "bias": -2.0145606379342995,
        "weights": {
          "0": -0.6252320894741353,
          "1": 0.011444823778475013,
          "2": -0.092014391197648,
          "3": -0.4221243483286465,
          "4": -0.07090571839985813,
          "5": 0.030321329495289973,
          "6": 0.02558490389555884,
          "7": -0.09789994897818738,
          "8": -0.059390503563542474,
          "9": -0.15665559620757882,
          "10": 0.09327039838723794,
          "11": 0.14637581114635134,
          "12": -0.07772583619136482,
          "13": 0.15614493067532814,
          "14": -0.19237683216954293,
          "15": -0.14835772643534942,
          "16": 0.0021333601607232246,
          "17": -0.10725829311873013,
          "18": 0.11882917777067811,
          "19": -0.20789976442667976,
          "20": -0.4177583716573105,
          "21": -0.16466584518056743,
          "22": -0.07355578747480987,
          "23": 0.10788341632794034,
          "24": 0.01966387121671021,
          "25": 0.058177832427079405,
          "26": 0.07495653980664188,
          "27": -0.16668312617234501,
          "28": -0.02766387285636596,
          "29": 0.17877582023849997,
          "30": -0.4102198324810839,
          "31": -0.751428908257339,
          "32": 0.06856258422346077,
          "33": -0.996226521810461,
          "34": -1.6778371050699403,
          "35": 1.18164204529001,
          "36": 0.1782449404835152,
          "37": -0.3501496695473765,
          "38": 0.1805130448082368,
          "39": -0.703459914250815,
          "40": 0.9350921627018243,
          "41": 0.030010294338745594,
          "42": 0.010002822175414336,
          "43": -0.6329712634402768,
          "44": 0.4107267937900193,
          "45": -0.10541170225227726,
          "46": 0.06788667268489111,
          "47": -0.49742355050770226,
          "48": -0.6176305529356119,
          "49": -0.42141842770043153,
          "50": -0.24673421903536366,
          "51": -0.49551798551371434,
          "52": -0.7785126868209769,
          "53": -0.5851699693574418,
          "54": 0.09595728245849244,
          "55": -1.3002000445929731,
          "56": -0.31528674541024704,
          "57": 2.9184813911194256,
          "58": 0.5302997445069347,
          "59": 0.6701489118810274,
          "60": -1.0673023226340477,
          "61": -0.2915960203492754,
          "62": 0.8586123995788443,
          "63": 0.10455395092384762,
          "64": 0.692228773797275,
          "65": 0.39927639726349695,
          "66": 0.380298569429925,
          "67": 0.24270403389915796,
          "68": 0.20003035624163434,
          "69": 0.08803485244308737,
          "70": -0.1893686398754439,
          "71": 0.6275672526685302,
          "72": 0.2999340261362328,
          "73": 0.07899376004442478,
          "74": -0.007801096234115933,
          "75": -0.09547683730505646,
          "76": 0.2297602373559916,
          "77": 0.06762209627610014,
          "78": 0.19231603099378003,
          "79": 0.05442106785167269
        }
      },
      "7": {
        "bias": -0.5031608484790651,
        "weights": {
          "0": 1.2721709206031417,
          "1": -0.2748303015827529,
          "2": -0.2364237515113488,
          "3": 0.5181286653765353,
          "4": 0.06082005636059652,
          "5": -0.0022524544625045135,
          "6": 0.1842120585971257,
          "7": -0.013312911286934348,
          "8": 0.015703250501422877,
          "9": -0.19968514210888844,
          "10": -0.016353273490968878,
          "11": -0.19013831983071106,
          "12": -0.1103411844993687,
          "13": 0.11811432087166135,
          "14": -0.18955185613479772,
          "15": -0.05599289635905988,
          "16": -0.6588759940085485,
          "17": -0.021331208718267547,
          "18": 0.04159363497144259,
          "19": 1.1137692807607176,
          "20": 0.7619373069503662,
          "21": 0.47978130918589296,
          "22": -0.14361667612209336,
          "23": 0.014684583687760525,
          "24": -0.10951835976551819,
          "25": 0.18476425605654864,
          "26": -0.0841457925600854,
          "27": -0.08924252404308354,
          "28": 0.1402820418242096,
          "29": -0.04901265505085888,
          "30": -0.5123113821248747,
          "31": -6.300163322836007,
          "32": 0.5091209923219885,
          "33": -1.7468901251706392,
          "34": 1.526917983017303,
          "35": -4.97780732938029,
          "36": -0.6799658598931376,
          "37": 0.7267749772466203,
          "38": -1.0153496564501496,
          "39": 0.9237016188553369,
          "40": 4.0629772260299,
          "41": 3.59042076512942,
          "42": 3.0405271061433,
          "43": 5.444081584438193,
          "44": -2.548799087959601,
          "45": 0.20304267617108737,
          "46": -1.873440243491528,
          "47": -0.7268352021308012,
          "48": 0.9132570833071362,
          "49": -0.05218089244371933,
          "50": 0.1549944280285873,
          "51": 0.9321928000577482,
          "52": 2.2837185566740708,
          "53": 0.4188988226921799,
          "54": -0.8857137834191545,
          "55": 10.880315854012176,
          "56": 3.6100173660983184,
          "57": -3.107945299513005,
          "58": -3.061893868670439,
          "59": -3.4431771842557533,
          "60": -2.6113868363205226,
          "61": -3.6924642267563947,
          "62": 0.3335556558100016,
          "63": 0.3710677157623798,
          "64": -2.44361156733235,
          "65": 1.3055452694541785,
          "66": 0.15983956506020117,
          "67": -0.9377425974742855,
          "68": -2.360481641215407,
          "69": -0.08666302618458264,
          "70": 0.7073381584362457,
          "71": -1.1836527238209327,
          "72": -0.545905772008216,
          "73": 0.048935512464791886,
          "74": -0.345362478283627,
          "75": -1.0047069326290932,
          "76": -0.8339852487906922,
          "77": -0.10333224871924343,
          "78": 0.6204702529362128,
          "79": 0.2424608194740319
        }
      },
      "8": {
        "bias": -1.9269933551620049,
        "weights": {
          "0": -0.18216746034120196,
          "1": -0.2064613512171261,
          "2": 0.5571243289665507,
          "3": -0.039292649740071225,
          "4": -0.1920961121931213,
          "5": 0.11165434635766076,
          "6": -0.1043216493920916,
          "7": -0.1519855095986663,
          "8": 0.19392591183826607,
          "9": 0.03851653490442092,
          "10": -0.16717293353750914,
          "11": 0.06189364017995047,
          "12": 0.08950323681738331,
          "13": 0.05983411893923424,
          "14": 0.18172682069587137,
          "15": 0.012570560898628458,
          "16": -0.025428311799384564,
          "17": -0.06940710641861694,
          "18": 0.09417903089964695,
          "19": -0.29404691896411866,
          "20": -0.22148704781178233,
          "21": 0.2700676539691632,
          "22": 0.1629508798009383,
          "23": 0.006141642190681839,
          "24": 0.00399438646162156,
          "25": -0.07273708410240454,
          "26": -0.0943447781724584,
          "27": 0.13202043882994133,
          "28": 0.15988374787762583,
          "29": -0.04357100080202293,
          "30": -1.4471719341702831,
          "31": -2.043229937426768,
          "32": 1.4363507909651592,
          "33": 0.6015458809409469,
          "34": -0.5744693469559428,
          "35": -0.6373566178455538,
          "36": -0.43047506031857785,
          "37": -0.3146286545298315,
          "38": 0.6916275807979644,
          "39": 0.2711731236524447,
          "40": -0.35083614993044926,
          "41": 0.5326168326687795,
          "42": -0.1124465359670654,
          "43": 1.2373193346538212,
          "44": -0.4436680741085983,
          "45": -0.3178674260628292,
          "46": 0.00819139502494361,
          "47": -0.23830054743412304,
          "48": -0.047835059349824946,
          "49": -0.23235945319543502,
          "50": 0.08089891049197506,
          "51": 0.37277733271930136,
          "52": 0.095971648867162,
          "53": 0.36652787634075323,
          "54": -0.040883186570184034,
          "55": -0.07677813883541164,
          "56": -1.6860180192025083,
          "57": 0.5037696886322881,
          "58": 0.2666366727273982,
          "59": -0.4579844580702726,
          "60": -0.0103186638331553,
          "61": 0.7363812027665965,
          "62": 0.8503315363044566,
          "63": -0.0968506341977428,
          "64": -0.27393544012679094,
          "65": 0.012753901635486885,
          "66": 0.28558163980860163,
          "67": 0.5748010923696576,
          "68": -0.019520805970389417,
          "69": -0.19750548038929064,
          "70": 0.34429001000808895,
          "71": 0.012931052551841906,
          "72": -0.33680445307611895,
          "73": -0.13183603118129913,
          "74": -0.2703955412619468,
          "75": -0.05852453535822245,
          "76": -0.38156842136470626,
          "77": 0.2189536720936941,
          "78": -0.1005499778860728,
          "79": -0.06192767255775927
        }
      },
      "9": {
        "bias": -2.002549019334123,
        "weights": {
          "0": -0.23979335162831672,
          "1": -0.31660871274697205,
          "2": 0.06003428014986771,
          "3": -0.2767789982857378,
          "4": -0.18170323384244627,
          "5": 0.14743473826489262,
          "6": 0.10981785255368443,
          "7": 0.06867764797118747,
          "8": -0.09017108032082355,
          "9": 0.0798273132983282,
          "10": -0.18925263031320752,
          "11": 0.1504821046758827,
          "12": 0.09397792318669007,
          "13": -0.13983510897442067,
          "14": -0.05813142453682918,
          "15": 0.19263820163384482,
          "16": 0.1411746219348667,
          "17": 0.048420360012692086,
          "18": -0.14845349700443963,
          "19": -0.09261575889500795,
          "20": -0.9122986874957633,
          "21": -0.3444402186444799,
          "22": -0.03271134591323235,
          "23": 0.04699997726421283,
          "24": 0.10532972379459474,
          "25": -0.13811799324054191,
          "26": -0.07414651756157792,
          "27": -0.09264138887306034,
          "28": -0.05349892671579215,
          "29": -0.08734940466256551,
          "30": -0.19576678580322254,
          "31": -1.0464751192272836,
          "32": 3.5610285646938236,
          "33": 0.06412458341838728,
          "34": -0.6723610573330858,
          "35": 4.11379491366585,
          "36": 1.5221678557962468,
          "37": -1.11255341899949,
          "38": -0.3189692283042542,
          "39": -0.6887932055602015,
          "40": 1.0421608911313553,
          "41": 0.1684887251001819,
          "42": -0.5304013350128118,
          "43": -1.5283894373633267,
          "44": 0.008020416439798526,
          "45": -0.16325291517491977,
          "46": 0.09205330341968401,
          "47": -0.6900561647799996,
          "48": -0.25728996663626513,
          "49": -0.43873589000740637,
          "50": 0.012956100731992095,
          "51": -0.27738498537591816,
          "52": -0.25255504746924873,
          "53": -0.4047874955646483,
          "54": -0.06493198446970196,
          "55": 0.44425425403840646,
          "56": 0.9105209297499999,
          "57": 2.713022811669432,
          "58": 0.4113838947221849,
          "59": 2.000590834848702,
          "60": -1.3462188899024867,
          "61": -1.030333933681928,
          "62": -0.9868176610436642,
          "63": -1.596354215450135,
          "64": -0.10232180590980425,
          "65": 0.02430771707348309,
          "66": 0.5677541132763997,
          "67": -0.2817667155994269,
          "68": 0.030154708944902346,
          "69": -0.9639444263607739,
          "70": -0.5837424390998543,
          "71": -0.3958683284288646,
          "72": 0.0010038863888885258,
          "73": -0.40937920125789584,
          "74": -0.07296501112063285,
          "75": -0.4975894589413571,
          "76": -0.006237644450480256,
          "77": -0.442611925379744,
          "78": -0.25634812472580976,
          "79": -0.11382032468488656
        }
      },
      "10": {
        "bias": -1.982939928002352,
        "weights": {
          "0": 0.12486558663659619,
          "1": -0.20646979332659143,
          "2": -0.10705611647800772,
          "3": -0.036703563505766666,
          "4": 0.1674978321004039,
          "5": -0.14336820079569698,
          "6": -0.06388031685364304,
          "7": 0.17977761019561644,
          "8": -0.17538543251123573,
          "9": -0.19552011024081628,
          "10": 0.09770156057732288,
          "11": -0.18789533443668774,
          "12": 0.17493102120462495,
          "13": -0.10353010124499713,
          "14": -0.14184962935885956,
          "15": -0.04909684668899797,
          "16": -0.05753361888278617,
          "17": 0.13191721682609173,
          "18": -0.13386112439687978,
          "19": 0.04560568773880407,
          "20": -0.5900192499044654,
          "21": -0.027964784923339085,
          "22": 0.16949541748509522,
          "23": 0.025179989234804186,
          "24": -0.07815490122244688,
          "25": -0.10685788522813096,
          "26": 0.16579893122846226,
          "27": -0.07356611798226968,
          "28": 0.05300199841920824,
          "29": 0.12432201301611565,
          "30": -2.5405241185701644,
          "31": -1.855453441005498,
          "32": 2.2766466096951925,
          "33": 2.490353454125421,
          "34": 1.8305512366598464,
          "35": 2.2286803469413745,
          "36": 1.4318478852224144,
          "37": -0.048114236345395966,
          "38": 1.0653997231235122,
          "39": 1.3086658551936203,
          "40": 0.1147877746306563,
          "41": -0.24333124724330135,
          "42": -0.4754995649156008,
          "43": -0.7046880893618659,
          "44": -0.4152085710365341,
          "45": -0.6212377744399649,
          "46": -0.46626950493750513,
          "47": -0.6979948721268943,
          "48": 0.2675563990794792,
          "49": -0.020221686801815075,
          "50": 0.6485663810003593,
          "51": 0.20056590114602524,
          "52": 0.12048794277737705,
          "53": -0.07397778689614269,
          "54": -0.06425277966929971,
          "55": 1.3255953152864013,
          "56": 0.8300957192852699,
          "57": 1.0344487906127844,
          "58": 0.3541292365062157,
          "59": -0.8918471920014982,
          "60": -0.5235036923330765,
          "61": -1.1954846947088307,
          "62": -0.9939690423431183,
          "63": -1.2934330753393286,
          "64": -0.906331963597868,
          "65": -0.3568960476741163,
          "66": 0.36313505171143273,
          "67": -0.7800830119947546,
          "68": 0.12970379486975783,
          "69": -0.8862362269962488,
          "70": -0.330404290278595,
          "71": -1.068505886579635,
          "72": -0.17212192831153775,
          "73": -0.5604547578950536,
          "74": 0.01566670066275005,
          "75": -0.25093798323560257,
          "76": -0.28736382524170634,
          "77": -0.46749698623271413,
          "78": -0.22066501035680575,
          "79": -0.1689597677257766
        }
      },
      "11": {
        "bias": -0.9621197569897582,
        "weights": {
          "0": -1.2086309322738673,
          "1": 0.07967968942010877,
          "2": 1.125069561190516,
          "3": -0.6528257607811894,
          "4": 0.11723011543735923,
          "5": 0.17874502720734636,
          "6": -0.16325340054891752,
          "7": 0.007971924952231646,
          "8": 0.07310656273932431,
          "9": -0.12218933626613815,
          "10": -0.018127015779617395,
          "11": 0.08403919130729076,
          "12": -0.01604212652841691,
          "13": 0.17805603928786973,
          "14": 0.13434284469836,
          "15": -0.17933737159522575,
          "16": 0.919850653316456,
          "17": -0.06507664830614814,
          "18": 0.013642948614719728,
          "19": -1.3479468941925776,
          "20": -0.1753051190457334,
          "21": -0.41111200271329595,
          "22": -0.23635552417803252,
          "23": -0.28363544126122814,
          "24": 0.34438029866480163,
          "25": 0.07245775181509309,
          "26": 0.1155838859434123,
          "27": 0.042340525310760165,
          "28": 0.014100077544258688,
          "29": -0.16524318536602253,
          "30": -1.1495804697173182,
          "31": 0.8932111855740903,
          "32": -1.7998090632265857,
          "33": -0.18236110540101277,
          "34": -4.842793270360116,
          "35": -2.6143999951898578,
          "36": -1.3865656625285636,
          "37": 0.4931134574386779,
          "38": 0.8867077151265094,
          "39": 0.43309437944085977,
          "40": -1.1510315620540579,
          "41": -1.110033306228424,
          "42": -0.6110383612177097,
          "43": 0.8965047434464157,
          "44": 0.2585252957522404,
          "45": -1.1202367990842712,
          "46": 0.10117169077170136,
          "47": 0.22161098501628126,
          "48": -0.7047100228093759,
          "49": -0.513078562478841,
          "50": -0.9754380861735076,
          "51": 0.43240876613708074,
          "52": -1.294930709272089,
          "53": 0.131311911718946,
          "54": 1.0046339911367852,
          "55": -3.5348818833488966,
          "56": -6.2969648854414,
          "57": -0.9592337021397411,
          "58": 0.9757618390233069,
          "59": -0.14390273651950924,
          "60": 0.7317602576257752,
          "61": 4.273935693419403,
          "62": 3.321628914631461,
          "63": 4.39339260160115,
          "64": 1.761181143878104,
          "65": -0.07973890611079332,
          "66": 0.5843077388703004,
          "67": 2.2219735440971684,
          "68": 0.5738992511738492,
          "69": 1.326051063061315,
          "70": 1.6539627749053134,
          "71": 2.1617851277963704,
          "72": -0.3746315334271056,
          "73": 0.6480615672584609,
          "74": -0.8900866871266894,
          "75": 1.1854815226866093,
          "76": 0.07453011143239638,
          "77": 1.0373941758998382,
          "78": -0.2972036409703078,
          "79": 0.030067602962375976
        }
      },
      "12": {
        "bias": -2.480626243044904,
        "weights": {
          "0": -0.37055247293918475,
          "1": -0.03532974242344304,
          "2": -0.005996056526717144,
          "3": 0.0026402882547604816,
          "4": 0.07191714292231517,
          "5": -0.07529888903658334,
          "6": 0.17691117876691037,
          "7": -0.10002396723200696,
          "8": -0.029208379787693584,
          "9": -0.18127179684922093,
          "10": 0.15530971354025497,
          "11": 0.18996453857436907,
          "12": 0.015176376589087687,
          "13": 0.14106558650894696,
          "14": 0.12365195749286723,
          "15": 0.05879306582618249,
          "16": 0.05497419429582763,
          "17": -0.026332891359005666,
          "18": 0.105877868142409,
          "19": -0.3529555538572673,
          "20": -0.23618460918345902,
          "21": -0.05932443277741329,
          "22": -0.09688301437238458,
          "23": 0.07872989582879392,
          "24": -0.034598111250788925,
          "25": 0.04491347331989927,
          "26": 0.0163347619187496,
          "27": 0.0029389892062319403,
          "28": 0.1361710667788646,
          "29": -0.1850964651116219,
          "30": -0.3038402703128869,
          "31": 1.5827200011136344,
          "32": -0.06883120986080146,
          "33": -0.5696672937183377,
          "34": -0.6228625007157554,
          "35": 0.2310284054476217,
          "36": -0.031568845799760874,
          "37": -0.8931648371422762,
          "38": -0.09982803094633692,
          "39": -0.25867700670335625,
          "40": 0.11598433428695204,
          "41": -0.14307157327137823,
          "42": -0.24534171202345936,
          "43": -1.238294111267562,
          "44": 0.4013744936050451,
          "45": -0.32737466528385845,
          "46": 0.1140171472759452,
          "47": -0.05793001556755315,
          "48": -0.2863141875032735,
          "49": -0.20695395863228203,
          "50": -0.04475850605924234,
          "51": -0.09191841180871128,
          "52": -0.24511013102523438,
          "53": -0.37708787550230793,
          "54": 0.43170866340059433,
          "55": -0.9140212872470699,
          "56": -0.4844515003834582,
          "57": 1.7018510995154643,
          "58": 0.8635277311814286,
          "59": 1.5079908292883353,
          "60": -0.2531418372161959,
          "61": 0.26431821623951735,
          "62": -0.14349569327838207,
          "63": -0.06624984289612572,
          "64": 0.33419943611366976,
          "65": -0.34501690016058817,
          "66": -0.018341386323350646,
          "67": 0.019472646718890787,
          "68": -0.33182381302778857,
          "69": 0.07414467328426565,
          "70": -0.23251087613626342,
          "71": 0.1445453559492994,
          "72": -0.1580793991338548,
          "73": -0.016233503141379398,
          "74": 0.028236480382900195,
          "75": -0.10262238418831977,
          "76": -0.14007417704538216,
          "77": -0.002511844401174416,
          "78": -0.2620455501595871,
          "79": -0.15718837381159098
        }
      },
      "13": {
        "bias": 0.01713984618381424,
        "weights": {
          "0": -1.5145194600381722,
          "1": 0.040875046847694524,
          "2": 0.6842657138334745,
          "3": -0.4329423127156789,
          "4": -0.12879245861574215,
          "5": -0.12641277704347617,
          "6": 0.1445007196743519,
          "7": -0.03129178151581327,
          "8": 0.026739931848260484,
          "9": 0.15651384611571173,
          "10": -0.09540915757017104,
          "11": 0.03162501965821596,
          "12": -0.10713901140295948,
          "13": -0.13185038718498224,
          "14": 0.15701437097358584,
          "15": 0.14627074779511545,
          "16": 0.8975284165856299,
          "17": -0.06823029582481319,
          "18": -0.08523572964229673,
          "19": -1.2831766308135388,
          "20": 0.08103900871450902,
          "21": -0.17467093537584374,
          "22": -0.2274850514318535,
          "23": -0.35067595306789,
          "24": 0.40723742870505736,
          "25": -0.16835672753225184,
          "26": 0.05491144938409359,
          "27": -0.05320842533333046,
          "28": 0.050450189287893486,
          "29": 0.14771111268593273,
          "30": 9.774906731565606,
          "31": -4.632021996374157,
          "32": -3.8386851454494813,
          "33": -6.001467071168741,
          "34": -0.9837082010143057,
          "35": -1.9943089774734062,
          "36": -4.350001791808385,
          "37": -0.324142023014773,
          "38": -2.157806169052175,
          "39": -3.688699219033129,
          "40": -1.2928437805200734,
          "41": -3.7822041311115013,
          "42": -1.253240321192718,
          "43": -0.046620769909142636,
          "44": 1.7973212190236068,
          "45": -0.17198578031254572,
          "46": 0.3109366321972661,
          "47": 1.363470274098572,
          "48": -2.870461349919917,
          "49": -2.05668239784478,
          "50": -1.310284864428552,
          "51": -2.035120571923878,
          "52": -2.2862896646947313,
          "53": -0.4437558881987785,
          "54": 0.8910103648664452,
          "55": -2.560091103562063,
          "56": -3.0460732818879643,
          "57": 1.5975183572402691,
          "58": -1.6692988748217132,
          "59": 5.187158829789756,
          "60": 3.527138434947243,
          "61": 2.4887504215227767,
          "62": 5.19036980430549,
          "63": 2.8747887433941464,
          "64": 2.459697505109144,
          "65": 2.6495608993348845,
          "66": 1.7113814730697208,
          "67": 1.7646445891221443,
          "68": 0.5623192698272876,
          "69": 2.405619196599875,
          "70": 0.5388057013087187,
          "71": 2.9325163107948,
          "72": 0.3905274709109054,
          "73": 2.136121960081341,
          "74": 0.1518259040009267,
          "75": 0.861025142020608,
          "76": 0.7249933257369385,
          "77": 1.6588662477439384,
          "78": -0.010111053713002499,
          "79": 0.10543513468556276
        }
      },
      "14": {
        "bias": -2.4632704925230704,
        "weights": {
          "0": 1.377763514127777,
          "1": 0.35728265995359093,
          "2": -0.8825727464752748,
          "3": 1.0786671377789763,
          "4": -0.14063213730518198,
          "5": 0.19509195779210298,
          "6": -0.04677465258379021,
          "7": 0.01349421220676722,
          "8": -0.012973608851260476,
          "9": 0.07720419207716889,
          "10": -0.17502477038008807,
          "11": -0.15715931646331172,
          "12": -0.08083807178186575,
          "13": 0.08804433199709327,
          "14": -0.12008339111506433,
          "15": 0.013662197652375696,
          "16": -0.38160117809202054,
          "17": 0.04426286050351483,
          "18": -0.10775529748545998,
          "19": 1.1140771544781047,
          "20": 0.9327151758203497,
          "21": 0.2681185857802434,
          "22": -0.019731757345687977,
          "23": 0.386474362483698,
          "24": -0.5413257683591202,
          "25": -0.1925140782659326,
          "26": -0.06748787819967918,
          "27": 0.18942745692157115,
          "28": 0.14729174398492803,
          "29": -0.16172803730859556,
          "30": 3.31352225074179,
          "31": 0.48736983429003844,
          "32": -2.027479973238517,
          "33": 0.18698765956682953,
          "34": 1.0071360762216368,
          "35": -1.5123490512174498,
          "36": 0.22710700975127462,
          "37": 0.5544908602483443,
          "38": 0.22791963226903197,
          "39": 0.7705518780131034,
          "40": -0.6440602610303993,
          "41": -0.4533532894907562,
          "42": 0.023838932633678533,
          "43": 0.5342721909737626,
          "44": 0.5029386277247799,
          "45": 1.1702063820360813,
          "46": -0.24527429120717364,
          "47": 1.1119426245531248,
          "48": 0.9685753359240832,
          "49": 1.1673458258915976,
          "50": 0.09150542485476673,
          "51": 0.35173507736191273,
          "52": 1.1397920188489066,
          "53": 0.6021748467649646,
          "54": -0.3258874541229632,
          "55": 0.32118805798170036,
          "56": 3.0965416869540174,
          "57": -4.8077544436466395,
          "58": -2.1875061651309293,
          "59": -1.9229423473879401,
          "60": -1.0907582977689458,
          "61": -1.7181693148392712,
          "62": -1.3261620754387655,
          "63": -0.6966384287968675,
          "64": -0.05476530418397126,
          "65": -0.3650512735784373,
          "66": -0.6163874402504447,
          "67": -0.028441126994673594,
          "68": -0.2568656149984226,
          "69": -0.507730766965093,
          "70": -0.15083088557867005,
          "71": -0.6547462198337329,
          "72": 0.2193043761853716,
          "73": -0.10058133084763377,
          "74": 0.04128278787314851,
          "75": -0.6458741551880754,
          "76": -0.16382505105667766,
          "77": -0.36882774982443706,
          "78": 0.07535452328991961,
          "79": -0.03998515568705177
        }
      },
      "15": {
        "bias": -0.38034139394204725,
        "weights": {
          "0": -2.726903018354668,
          "1": 0.40907065925295233,
          "2": 1.0796128189533518,
          "3": -1.7220611829482442,
          "4": -0.17557164631290698,
          "5": -0.042691495229751145,
          "6": 0.011484343842967704,
          "7": 0.05456092364541243,
          "8": -0.062000812028372376,
          "9": 0.035896342297618844,
          "10": 0.018199817036523125,
          "11": 0.01333926092972676,
          "12": 0.06126697850953483,
          "13": -0.05483948004329939,
          "14": 0.04138939921001067,
          "15": 0.11731345873706572,
          "16": 1.8856386979242177,
          "17": 0.14273563422648483,
          "18": 0.06160971863013259,
          "19": -2.6042998361855614,
          "20": -1.3598490579149065,
          "21": -1.3633813460214035,
          "22": -0.1574264118333011,
          "23": -0.289901615232755,
          "24": 1.1126620022405291,
          "25": 0.16935065958833123,
          "26": -0.056127154151708325,
          "27": -0.07635679107661655,
          "28": -0.08205145421997152,
          "29": 0.05695247201462104,
          "30": -0.9762659066331604,
          "31": 3.273442630413859,
          "32": -6.344487335724335,
          "33": -3.68753626977285,
          "34": -0.8864319731454487,
          "35": -1.8353547497651004,
          "36": -4.198399979101923,
          "37": -1.803027194159419,
          "38": -2.4683182658605816,
          "39": -0.8116257046830322,
          "40": 0.49262764723745023,
          "41": -2.436491645310016,
          "42": -0.3293073795112179,
          "43": -1.804413448345856,
          "44": -0.02851063262232852,
          "45": -0.8943021404796633,
          "46": 0.9600077634995984,
          "47": 0.7770042887887932,
          "48": -0.31060697847849117,
          "49": 0.31845734238570766,
          "50": -0.33958230862753536,
          "51": -0.3885995752461441,
          "52": -2.508757522727756,
          "53": 0.44328967810105074,
          "54": 1.9520141780538636,
          "55": -1.2208076258261074,
          "56": -4.986544483594354,
          "57": 0.6609185787317942,
          "58": 6.104063535577831,
          "59": 8.751220133481775,
          "60": 5.558073714050207,
          "61": 6.4225738644813966,
          "62": 2.606547322572217,
          "63": 0.5824689547606403,
          "64": -0.13505619860283655,
          "65": -0.38588492589398476,
          "66": -2.8472991035306583,
          "67": 0.709303359945049,
          "68": -0.39601245370275606,
          "69": 1.343264911981676,
          "70": 0.31633662290594833,
          "71": 2.7527142351691976,
          "72": -1.7130617235683991,
          "73": 1.5631589590512402,
          "74": 0.03876390987770823,
          "75": 2.0289489363642517,
          "76": 0.3181402632493902,
          "77": 1.7394742387119135,
          "78": -0.9293442081715874,
          "79": -0.527442409249926
        }
      },
      "16": {
        "bias": -1.131910139480628,
        "weights": {
          "0": 1.0567607608742096,
          "1": -0.20314262209819578,
          "2": -0.011733865283722658,
          "3": 0.4778863016005033,
          "4": 0.16252287601029222,
          "5": -0.13915466776580268,
          "6": 0.09700005490315017,
          "7": 0.1969574263373987,
          "8": 0.1559292481100178,
          "9": -0.12372447075940736,
          "10": 0.1940138661909021,
          "11": -0.1360601259573281,
          "12": -0.15105067253895302,
          "13": 0.0386079140197097,
          "14": 0.17331059528126253,
          "15": 0.13264253211558136,
          "16": -0.6293507637223936,
          "17": -0.04482703659142452,
          "18": -0.09567832852850709,
          "19": 0.9607873058081848,
          "20": 0.7582036826492171,
          "21": 0.3686341298495889,
          "22": 0.26605012165073977,
          "23": 0.34286553210985743,
          "24": -0.18031291623403667,
          "25": -0.06134992317395657,
          "26": 0.14968937593843926,
          "27": 0.08024622106290932,
          "28": -0.03412240025829469,
          "29": 0.1088862026099512,
          "30": -0.5572457982953783,
          "31": -4.0062397049049965,
          "32": 0.17292413919721328,
          "33": 3.9863394794922,
          "34": 0.9300778329762541,
          "35": 1.2739380800577065,
          "36": 0.3605828574376773,
          "37": 3.7307986019561805,
          "38": 2.2956637037066736,
          "39": 0.7907381008369498,
          "40": -0.5923982787746847,
          "41": 0.4842997326079491,
          "42": -1.473655652446106,
          "43": 2.621202013580212,
          "44": 0.8632515455559832,
          "45": 2.020479403239528,
          "46": -0.25517970875876184,
          "47": 0.77484808705932,
          "48": 0.17046758239845045,
          "49": -0.20614218088680586,
          "50": 0.16518154060074516,
          "51": -0.006748909622856476,
          "52": 1.2249035540504665,
          "53": -0.5040230843989303,
          "54": -1.1363821290404084,
          "55": -4.309018732432288,
          "56": 0.5641273382405461,
          "57": -2.713414596869879,
          "58": -5.406294934522324,
          "59": -1.9121315976880076,
          "60": -1.3569539521578036,
          "61": -2.892174599752077,
          "62": -1.088400429506588,
          "63": -0.2960150728505682,
          "64": 0.8285599323421249,
          "65": 0.6379629246447553,
          "66": 1.0171810097724763,
          "67": 0.45407970804561937,
          "68": 0.7567118745164443,
          "69": -0.6127505125798982,
          "70": -0.7601272690935654,
          "71": -0.7059137223069214,
          "72": 1.3821782306873522,
          "73": -0.891651582844428,
          "74": 0.12049389387592094,
          "75": -1.1304922761724696,
          "76": 0.18220069800411956,
          "77": -0.7486996814770932,
          "78": 1.0731398554382905,
          "79": 0.15019240243080123
        }
      },
      "17": {
        "bias": -2.962195073299113,
        "weights": {
          "0": -0.08430081619989914,
          "1": 0.18333833165385188,
          "2": -0.0467040641209029,
          "3": 0.002932787534362548,
          "4": 0.15932143279459896,
          "5": -0.12708222304429104,
          "6": 0.17904160500380767,
          "7": -0.0017789418999679119,
          "8": -0.1170566085622916,
          "9": -0.049725226532156525,
          "10": -0.0021792197262895385,
          "11": -0.1599434369423073,
          "12": -0.10724155271904481,
          "13": -0.0931914148703922,
          "14": -0.043709533573753234,
          "15": -0.03930703243349526,
          "16": 0.19422897850210336,
          "17": 0.09876581968245045,
          "18": -0.09594441863663657,
          "19": -0.01581757606481445,
          "20": -0.23533462742760689,
          "21": -0.0999546159717396,
          "22": -0.09887282625052832,
          "23": 0.05183615287588886,
          "24": -0.013558831498086125,
          "25": 0.05247956897156178,
          "26": -0.05103663201590031,
          "27": -0.12660732111376602,
          "28": -0.02224191421246184,
          "29": 0.10855279543296971,
          "30": 0.44189527408548246,
          "31": 1.302962122738787,
          "32": -0.3244112297115859,
          "33": -0.7176582597592609,
          "34": -0.9026169871976065,
          "35": -0.5230907431632517,
          "36": 0.13257471422566566,
          "37": -0.6801004132876681,
          "38": -0.3612564641787278,
          "39": -0.23917894649847982,
          "40": 0.12208267830390708,
          "41": -0.3901390604452648,
          "42": 0.026380662278291903,
          "43": -0.6601783870285172,
          "44": -0.0380698498874707,
          "45": -0.19359611490339565,
          "46": 0.2210068978567316,
          "47": -0.12600667316830255,
          "48": -0.03672738303207767,
          "49": -0.09642425396275058,
          "50": -0.27994245313592253,
          "51": -0.04246020964213199,
          "52": -0.2566488218069744,
          "53": -0.31723548995652034,
          "54": 0.23918606808929108,
          "55": -0.6351787692849615,
          "56": 0.2823127008629055,
          "57": 0.18245925851330083,
          "58": 0.5131162303376515,
          "59": 0.6171155418006106,
          "60": 0.04009493326415551,
          "61": -0.005980983661324095,
          "62": -0.3136369775954227,
          "63": -0.10371229472146873,
          "64": 0.2884602700870529,
          "65": 0.0479722476606362,
          "66": -0.02791328601795279,
          "67": 0.04765777901824769,
          "68": -0.1631735362967129,
          "69": 0.1347987445668456,
          "70": -0.11579809731203408,
          "71": 0.0229838937475669,
          "72": 0.10949097602416542,
          "73": -0.18869259276886552,
          "74": 0.012137191719196616,
          "75": 0.17342245239453993,
          "76": -0.0625917638627221,
          "77": 0.09354417874821858,
          "78": 0.05204357803819645,
          "79": 0.06335087554832883
        }
      },
      "18": {
        "bias": -1.7002344671013063,
        "weights": {
          "0": -0.5242819086803047,
          "1": 0.24207915516876263,
          "2": -0.16134933320975012,
          "3": 0.033013189591973593,
          "4": -0.014544944143268523,
          "5": 0.11363242208171671,
          "6": 0.14719197963787922,
          "7": -0.10915442522717661,
          "8": -0.036932543727990014,
          "9": 0.12785832352791182,
          "10": 0.1609496837975785,
          "11": -0.017791491813632376,
          "12": -0.07682956507118598,
          "13": -0.11643816878471035,
          "14": -0.19669922001532011,
          "15": -0.029141682163426108,
          "16": 0.3605593851369211,
          "17": -0.08496645113484474,
          "18": -0.034380154842438754,
          "19": -0.20146429091564014,
          "20": -0.21160339215516252,
          "21": -0.25848682290410213,
          "22": -0.1625111275491972,
          "23": -0.21766794832143113,
          "24": -0.027219690069890674,
          "25": 0.1157520166962412,
          "26": 0.10589991935907801,
          "27": 0.17293706689010946,
          "28": 0.15386063476086093,
          "29": 0.1491634438076418,
          "30": 1.7820118443796937,
          "31": 6.574041691463548,
          "32": -3.386751639248241,
          "33": -0.5038347339043276,
          "34": -2.6896919730948725,
          "35": -0.33416512294963,
          "36": 1.3766261776794115,
          "37": 0.03225317504319575,
          "38": 0.3171662673337633,
          "39": -0.2860071412845981,
          "40": 0.3541195155230762,
          "41": -0.8368411089313005,
          "42": -0.3284483567292705,
          "43": -2.974730345731231,
          "44": 1.779375160879394,
          "45": 0.49138695644299424,
          "46": 0.28943997000737165,
          "47": -0.16999621774688178,
          "48": -0.21845275926224683,
          "49": 0.17044251123898221,
          "50": -0.6309651271039393,
          "51": -0.3464447092666826,
          "52": -0.5991152964747395,
          "53": -0.5291504328147043,
          "54": -0.04469629920965871,
          "55": -3.6466983387281773,
          "56": -3.595839391215978,
          "57": 1.949696430873872,
          "58": -0.35329995646424034,
          "59": 1.1133193699949329,
          "60": -0.7888152155635567,
          "61": 0.4035639996093384,
          "62": -0.20096868769853776,
          "63": 0.8820403173249621,
          "64": 2.6849333106796807,
          "65": 0.008018015891768572,
          "66": -0.23972085928820724,
          "67": 0.16846089684808654,
          "68": 0.33728614200341883,
          "69": -0.0801271745794327,
          "70": -1.0618265550318,
          "71": 0.8126243301260092,
          "72": 0.18070459917733228,
          "73": 0.34379255361629946,
          "74": -0.03620189758869943,
          "75": 0.06677416191331755,
          "76": 0.501099972090549,
          "77": -0.4086504005907009,
          "78": 0.15347351177663981,
          "79": -0.2658149328059318
        }
      },
      "19": {
        "bias": -2.2180872373170915,
        "weights": {
          "0": 0.21616240362315606,
          "1": 0.22586646944876934,
          "2": -0.1275483918472479,
          "3": 0.43318093285234943,
          "4": 0.17531811081110144,
          "5": -0.014033095444600288,
          "6": 0.04949440246015496,
          "7": -0.03701375704372928,
          "8": -0.19636498564425758,
          "9": 0.011244305775832325,
          "10": -0.1213475013818191,
          "11": -0.056481565951632895,
          "12": -0.18399209310957856,
          "13": 0.06001239329834601,
          "14": 0.14904724390131474,
          "15": -0.011875879208606832,
          "16": -0.23524135207955726,
          "17": 0.00627375676693018,
          "18": -0.04284196235961872,
          "19": 0.4478191925599018,
          "20": 0.011316047304752785,
          "21": -0.22527879320101207,
          "22": 0.027569762140850978,
          "23": 0.09681873658417957,
          "24": 0.13700808096946518,
          "25": 0.13113504335255347,
          "26": 0.19293056639453296,
          "27": -0.13458431829487416,
          "28": 0.18098072195521825,
          "29": 0.13143749086814221,
          "30": 0.9292928760641381,
          "31": 0.9499891089630141,
          "32": -0.44747978499358676,
          "33": 0.8499175337903346,
          "34": -0.2969265232600624,
          "35": 3.923763941487547,
          "36": 2.8617328951386516,
          "37": -0.2624243058803462,
          "38": 0.9423253865966491,
          "39": 0.6224900667005989,
          "40": 0.001257256588601383,
          "41": -0.9388302022456416,
          "42": -0.6441980359588115,
          "43": -0.4857564405919847,
          "44": 1.032425657818291,
          "45": 0.7316797995247325,
          "46": 0.20926300058542982,
          "47": 0.2660553537169423,
          "48": 0.35113479584494284,
          "49": -0.07697616732646627,
          "50": -0.12409330487066124,
          "51": -0.22999300861587046,
          "52": 0.11695049149313731,
          "53": -0.2259836820815786,
          "54": -0.6837974941828571,
          "55": -3.763271668769995,
          "56": 2.40318560585813,
          "57": -1.9455992455900213,
          "58": -2.49883410049244,
          "59": -0.31556317252549826,
          "60": -2.0106021733957666,
          "61": -1.7643176814422155,
          "62": -0.9254438308507859,
          "63": -0.9489396653957772,
          "64": 0.4750880840379576,
          "65": -0.06800033298019562,
          "66": -0.03211007832162693,
          "67": -0.2832775302771535,
          "68": 0.3053118434329766,
          "69": -0.6525611060571684,
          "70": -0.8561896058439546,
          "71": -0.27236100441632577,
          "72": 0.6344736370979288,
          "73": -0.6030453607264826,
          "74": -0.05040386724681615,
          "75": -0.9098500145061504,
          "76": -0.04890868814711888,
          "77": -0.4418153161737411,
          "78": 0.2297508287842869,
          "79": -0.0028010673912069535
        }
      },
      "20": {
        "bias": -1.9495004733023682,
        "weights": {
          "0": 0.29837834632940796,
          "1": -0.09605357873144994,
          "2": 0.05282019701384928,
          "3": 0.002351824542761341,
          "4": -0.19182746403800222,
          "5": -0.04270462920014279,
          "6": -0.1485959661769127,
          "7": 0.04006152869674828,
          "8": 0.06901381946873847,
          "9": -0.06398037492469541,
          "10": 0.04832591690836602,
          "11": -0.159624865458986,
          "12": 0.17162206589087287,
          "13": -0.0352143099742796,
          "14": 0.16421367860522723,
          "15": 0.15620154514127815,
          "16": -0.2532915036123865,
          "17": 0.05763776933199948,
          "18": -0.12876081840536463,
          "19": 0.1377800122749927,
          "20": -0.4341595807577966,
          "21": -0.09332193371857678,
          "22": 0.3003507780489568,
          "23": 0.03788214044206113,
          "24": 0.1554229242810845,
          "25": 0.09736525254973455,
          "26": 0.17592170151944608,
          "27": -0.08587764613442726,
          "28": -0.19801028814006408,
          "29": -0.1495796925716879,
          "30": -1.2672790019939824,
          "31": -0.7171157860050911,
          "32": 4.512985151518014,
          "33": 0.44497380700046746,
          "34": -0.3388916827850635,
          "35": 2.0630001838125795,
          "36": 0.2928734045135954,
          "37": 0.5521654803143083,
          "38": 0.22265651341211823,
          "39": 0.39401911194330635,
          "40": 0.6853031929438753,
          "41": 0.6272537404385096,
          "42": -0.253269648107655,
          "43": -0.7873767272237002,
          "44": 0.44577306310653453,
          "45": 0.3286301556959724,
          "46": 0.2301698564321586,
          "47": -0.3237021492109392,
          "48": 0.03944548712667504,
          "49": -0.6811933533793816,
          "50": 0.1250400414731057,
          "51": -0.10804012763242571,
          "52": 0.19658418553941795,
          "53": -0.37612254641221726,
          "54": -0.14734525915664734,
          "55": -1.9215892369759808,
          "56": 0.7600684242484823,
          "57": 1.4270884800662007,
          "58": -0.987815018598539,
          "59": 0.0416327322421486,
          "60": -1.5221139684884344,
          "61": -1.4865009584224504,
          "62": -0.8080639941479523,
          "63": -0.9741500457405461,
          "64": 0.335074205695985,
          "65": -0.37459918875823245,
          "66": 0.8047152296921696,
          "67": -0.29061178294084494,
          "68": 0.551568190812462,
          "69": -0.8243114548071023,
          "70": -0.2563384302474151,
          "71": -0.8130555057754828,
          "72": 0.34876925704077544,
          "73": -0.6012906925888357,
          "74": -0.019730391138016588,
          "75": -0.41796241095922404,
          "76": -0.06177345279300932,
          "77": -0.5821051538776272,
          "78": 0.09562513804399105,
          "79": -0.10880688414117856
        }
      },
      "21": {
        "bias": -1.0717711222583208,
        "weights": {
          "0": -0.5524076511257208,
          "1": 0.10361655903446654,
          "2": 0.8699389128997755,
          "3": -0.5281594144135874,
          "4": -0.17023831371929346,
          "5": 0.10867550871267548,
          "6": 0.018672141779769558,
          "7": 0.0373550328363387,
          "8": 0.05221207985724641,
          "9": 0.05177434282735982,
          "10": -0.05643599599999832,
          "11": 0.030861038548032294,
          "12": -0.03438490918717835,
          "13": -0.17891083515304437,
          "14": -0.026807056563624698,
          "15": -0.019738963212792976,
          "16": 0.5569076063959677,
          "17": -0.17047390688375944,
          "18": -0.054316808161777884,
          "19": -0.8020827146869363,
          "20": -0.10450391985071826,
          "21": 0.07781736813801582,
          "22": -0.3499728804149616,
          "23": -0.11044221133578855,
          "24": 0.22643977310220328,
          "25": -0.16368619831607698,
          "26": -0.18879097988721738,
          "27": 0.009163812566616357,
          "28": -0.08531368477575758,
          "29": -0.030083879953987605,
          "30": -1.5909708985106263,
          "31": -0.271552425666845,
          "32": -2.5372061822494523,
          "33": -0.4055847092689071,
          "34": -0.9202125046440021,
          "35": -2.0615395712070335,
          "36": -1.0015835890532574,
          "37": -0.9594154975970891,
          "38": -0.2798299186275588,
          "39": 0.3147255637687661,
          "40": -1.7665672603390763,
          "41": -1.4927786037834507,
          "42": 0.042757989101815094,
          "43": 1.470274928887554,
          "44": -0.17312740506629826,
          "45": -0.20992370866981863,
          "46": 0.2386078211216342,
          "47": 0.29866146761595985,
          "48": 0.41671199533520475,
          "49": 0.2092961688920402,
          "50": 0.045713342099237324,
          "51": 0.20860837852817768,
          "52": -0.35229596845111233,
          "53": 0.6942492767235411,
          "54": 0.5293522337120393,
          "55": -1.3469587768089062,
          "56": -3.8028392398942588,
          "57": -2.0222290235522427,
          "58": 0.5886059044944802,
          "59": 0.4405903252870378,
          "60": 0.5595536932582218,
          "61": 3.0521876749747134,
          "62": 3.074166702817906,
          "63": 1.4850073129678334,
          "64": 0.28410379119610923,
          "65": -0.15339513614475328,
          "66": -0.051656805053817895,
          "67": 2.068158418395758,
          "68": -0.029567436346445767,
          "69": 0.8665961838858194,
          "70": 0.9770266798506608,
          "71": 1.073393364264625,
          "72": -0.8711660536369581,
          "73": 0.9346852660782774,
          "74": -0.360812621592412,
          "75": 0.7331393385183523,
          "76": -0.3294965848234115,
          "77": 0.9933176504871515,
          "78": -0.23956918894139637,
          "79": -0.1472730525982469
        }
      },
      "22": {
        "bias": 0.6561818155863308,
        "weights": {
          "0": -0.024138162651750696,
          "1": 0.7660189786875844,
          "2": 0.2413337071411467,
          "3": 0.09963023235397944,
          "4": 0.07373334215485738,
          "5": 0.1435564340574923,
          "6": 0.18131848733919675,
          "7": 0.011796793218626256,
          "8": 0.16408656665578775,
          "9": 0.060180033839546454,
          "10": 0.17752690651645936,
          "11": 0.17667627803556674,
          "12": -0.07081023180368248,
          "13": -0.004198293240515127,
          "14": -0.059484967559697205,
          "15": 0.11746026493976214,
          "16": -0.18706285037786277,
          "17": -0.022852059295443896,
          "18": 0.08386646078430206,
          "19": 0.12091058466790683,
          "20": 0.9902605972332827,
          "21": -0.12071141936747257,
          "22": -0.23193431236107465,
          "23": 0.23226287157389983,
          "24": 0.05154184944183764,
          "25": 0.07851137514963072,
          "26": -0.018249471324007786,
          "27": -0.15466846990398628,
          "28": 0.14143671962153895,
          "29": -0.11872174626961665,
          "30": 12.276458788431965,
          "31": 0.8308527169333212,
          "32": -8.620254810146102,
          "33": -5.9797582369240105,
          "34": -1.5733549434792806,
          "35": -5.060544069493061,
          "36": -0.1938696279983718,
          "37": 2.881891147130917,
          "38": -1.6372266229568913,
          "39": -3.2195043105504126,
          "40": -0.44518540156011627,
          "41": -4.224717073519644,
          "42": -1.2524699704442632,
          "43": -0.0764699688843879,
          "44": 2.676147467671304,
          "45": 2.781535304122088,
          "46": -0.7407921363854929,
          "47": 1.9961073040011508,
          "48": -1.5958836358015502,
          "49": -0.5159108841441354,
          "50": -2.029436273150739,
          "51": -1.7715470824940058,
          "52": -0.5534138797552574,
          "53": -0.8670778740816594,
          "54": -0.4766925723465617,
          "55": 1.1699205802756218,
          "56": -2.8313746657799324,
          "57": -2.0277622949502923,
          "58": -3.842799751681218,
          "59": 1.1101806880166245,
          "60": -2.604894685809778,
          "61": 0.519272403769582,
          "62": 3.3224287224979707,
          "63": 4.518116483934216,
          "64": 4.499348366326175,
          "65": 3.0352548971990325,
          "66": 0.23508282480028891,
          "67": 1.6267943994335,
          "68": -1.2268919072719335,
          "69": 1.8290784236640485,
          "70": -0.6170374125873577,
          "71": 1.5678121246834191,
          "72": 0.9830403875431997,
          "73": 2.158088416327655,
          "74": -0.08854334284099197,
          "75": -0.4579860669916705,
          "76": 0.987037127897777,
          "77": 0.23366626538018165,
          "78": 0.38850390652077643,
          "79": 0.27286995514820367
        }
      },
      "23": {
        "bias": -0.7894121567522444,
        "weights": {
          "0": -0.8915475510590974,
          "1": -0.34792089655485986,
          "2": 1.1122941061246219,
          "3": -0.6887943571716985,
          "4": -0.0008120857680248744,
          "5": -0.113757156890021,
          "6": 0.17014985952272987,
          "7": 0.02087144997125359,
          "8": 0.04593801512685394,
          "9": 0.17066902520670502,
          "10": -0.14379783612875452,
          "11": -0.0722517910148702,
          "12": 0.08836982073562571,
          "13": -0.10285505949272711,
          "14": -0.16375347051582934,
          "15": 0.1673253081613469,
          "16": 0.2972807867703459,
          "17": -0.1646783362256703,
          "18": 0.17220680103718067,
          "19": -0.8309180744240251,
          "20": -0.09397823785542138,
          "21": 0.3285719042520991,
          "22": 0.058844456730183646,
          "23": -0.10147558416417816,
          "24": 0.1495784560513019,
          "25": -0.09942799340639177,
          "26": -0.04756385995787524,
          "27": -0.010363308081298926,
          "28": 0.14062434617666397,
          "29": -0.006418918886773066,
          "30": -2.117326587244863,
          "31": -4.432625444395781,
          "32": -0.7849746671100593,
          "33": 0.23032301119597273,
          "34": -0.7288446230030117,
          "35": 0.0964426836791575,
          "36": -0.9052414436314183,
          "37": -2.495890550004679,
          "38": 0.4195956492339685,
          "39": 0.4184345733923744,
          "40": -1.4331478450007098,
          "41": -0.9699764193299434,
          "42": 0.38823687136783314,
          "43": 2.49998008557423,
          "44": -0.7387925928975069,
          "45": -1.5529195539281444,
          "46": 0.5623312987377401,
          "47": 0.20542250615250132,
          "48": 0.6731141009832933,
          "49": -0.13555493197894278,
          "50": 0.48808984418519097,
          "51": 0.43453952487242875,
          "52": -0.4040539428816606,
          "53": 0.792836473447406,
          "54": 0.666277506049172,
          "55": -0.6363847898139688,
          "56": -3.4403392200994665,
          "57": -1.469883352967105,
          "58": 2.4096153712287127,
          "59": 0.6759760062105905,
          "60": 1.8304566390109323,
          "61": 2.974850895490422,
          "62": 2.9915334993031157,
          "63": 0.664546760153458,
          "64": -1.7349116224180707,
          "65": 0.41189083006437216,
          "66": -0.10265860876343012,
          "67": 1.9750670022036807,
          "68": -0.058175367961097964,
          "69": 0.3741415575632359,
          "70": 1.6931819349340276,
          "71": 0.6392247987703471,
          "72": -1.885492492805151,
          "73": 0.7940231122886697,
          "74": -0.34751407911003224,
          "75": 0.8206252915622624,
          "76": -0.7891702132244823,
          "77": 1.2876667916294435,
          "78": -0.4639383027667608,
          "79": -0.1499221961643339
        }
      },
      "24": {
        "bias": -2.697703839630595,
        "weights": {
          "0": -0.25530945599479915,
          "1": -0.21085280992640967,
          "2": 0.07815663031173593,
          "3": 0.06863825413501186,
          "4": -0.17825751271883394,
          "5": -0.12095961045775805,
          "6": 0.1697768268699038,
          "7": -0.07618896619676843,
          "8": -0.19700565903522477,
          "9": 0.045768931387256906,
          "10": -0.030632558496216072,
          "11": -0.006294336258157868,
          "12": -0.045682111932579955,
          "13": -0.0005443286362738498,
          "14": 0.13616405779406177,
          "15": -0.006008950787290163,
          "16": -0.10220511727906753,
          "17": 0.09118529811863452,
          "18": -0.13062136151960824,
          "19": -0.05828066049075248,
          "20": -0.16676908752808864,
          "21": 0.16916658490355904,
          "22": -0.17458363040892275,
          "23": 0.03734205578211206,
          "24": 0.1174330772004703,
          "25": 0.11697463695180205,
          "26": -0.1610878475015272,
          "27": 0.030545588314865212,
          "28": -0.04215816557578321,
          "29": -0.17034427047230735,
          "30": -0.4419425795475708,
          "31": -1.0147955239015916,
          "32": 0.07242727875290325,
          "33": -0.10778895795626511,
          "34": -0.0720449957241239,
          "35": -0.2656667214231621,
          "36": -0.13425537029161483,
          "37": 0.10874302688785908,
          "38": -0.07272600443415628,
          "39": 0.0004944232691324448,
          "40": -0.38472861028184846,
          "41": 0.0016516173869200632,
          "42": 0.1422545322309583,
          "43": -0.07889256989670898,
          "44": 0.05788852282629377,
          "45": -0.015799638641706925,
          "46": -0.21589128030582685,
          "47": 0.095553132343355,
          "48": -0.08923794256622326,
          "49": 0.07001227429497005,
          "50": 0.2510930505539491,
          "51": 0.21186099520320817,
          "52": 0.14801471101589747,
          "53": 0.2032106272964034,
          "54": -0.010034339007575796,
          "55": -0.3947200705276316,
          "56": -0.5060309238565771,
          "57": 0.02612408035529274,
          "58": 0.08594783687740772,
          "59": -0.19458555477564912,
          "60": -0.2593144059047494,
          "61": 0.09350021415003887,
          "62": 0.34821326067542774,
          "63": 0.1254419102738401,
          "64": -0.15021777167422976,
          "65": 0.08526237069279013,
          "66": -0.01486478457099113,
          "67": -0.15988627923083037,
          "68": -0.1594915729988763,
          "69": -0.16236069542998807,
          "70": 0.0158971773043472,
          "71": -0.2082111839220509,
          "72": -0.3149756324745603,
          "73": -0.0774886892260931,
          "74": -0.004580702484541493,
          "75": 0.011115052803284996,
          "76": 0.011146316402223428,
          "77": -0.08415053311864674,
          "78": -0.22557187457223682,
          "79": -0.15531419142551472
        }
      },
      "25": {
        "bias": -0.9218102368689148,
        "weights": {
          "0": 0.9772103415400503,
          "1": 0.04746158739996348,
          "2": -0.6743565214846812,
          "3": 0.6502130133544385,
          "4": 0.12297201549686015,
          "5": -0.18792486625968144,
          "6": -0.190113779382319,
          "7": -0.16389880960311506,
          "8": 0.09158907036640385,
          "9": -0.1331268595884282,
          "10": 0.1717349287302028,
          "11": 0.05327910901869365,
          "12": 0.03647307870035102,
          "13": -0.05384266753531061,
          "14": 0.19832614777672808,
          "15": -0.17382180392265312,
          "16": -0.3744461729259231,
          "17": -0.013142689001091442,
          "18": 0.08342629678454253,
          "19": 1.0150845609370982,
          "20": 0.7731721078911288,
          "21": 0.33388231664477785,
          "22": -0.11375507350950433,
          "23": 0.31212856908184955,
          "24": -0.206783772693841,
          "25": -0.09045618466986727,
          "26": -0.08224338425928018,
          "27": -0.12320979992209545,
          "28": 0.10093459473958935,
          "29": -0.19454844303986368,
          "30": 2.15435117578943,
          "31": 0.2512600515406484,
          "32": 4.139240830719859,
          "33": 1.4932147364922577,
          "34": 1.4381717502941138,
          "35": -4.853849393921929,
          "36": -1.0428489280847286,
          "37": 1.2669699955880922,
          "38": 0.4813635924917136,
          "39": 1.074807024468284,
          "40": -1.8805831951703458,
          "41": 1.4771263582053933,
          "42": 0.3662640417674493,
          "43": 0.8548756582650087,
          "44": 0.35521970003627673,
          "45": 1.7730770900853021,
          "46": 0.19406056120389853,
          "47": 1.146528936549999,
          "48": 0.9970206154498742,
          "49": 1.1572355166196626,
          "50": 0.2576538105390574,
          "51": 0.8931200108064785,
          "52": 1.3263632373755059,
          "53": 0.15187240794481072,
          "54": -0.22272556687463665,
          "55": -2.5667557813917585,
          "56": -0.5009049777786287,
          "57": -3.0376129514044963,
          "58": -3.5101332169675072,
          "59": -1.607020296648227,
          "60": -0.15158154087681103,
          "61": -2.5638925845294516,
          "62": -1.6470979674245176,
          "63": -0.9657406894234969,
          "64": -0.4006986581554524,
          "65": -0.7154168189627098,
          "66": -0.45535596646699084,
          "67": -0.32515751400112347,
          "68": 0.16157597512616362,
          "69": -0.693804044571585,
          "70": 0.5670726001547279,
          "71": -1.2540102240166846,
          "72": 0.37597415750085483,
          "73": -0.4838316999886205,
          "74": -0.09915216440621265,
          "75": -0.5947018260662336,
          "76": -0.08382722423284379,
          "77": -0.772868456014366,
          "78": 0.10639494218842209,
          "79": -0.13164795834104515
        }
      },
      "26": {
        "bias": -1.4144872817358818,
        "weights": {
          "0": 0.41999756355918083,
          "1": 0.03753981745473623,
          "2": -0.18196629630072,
          "3": 0.5054891728638021,
          "4": -0.15058817864045476,
          "5": -0.12398060105023183,
          "6": 0.08689509258979494,
          "7": 0.037564560688587545,
          "8": 0.005895259411987486,
          "9": -0.08848483144324391,
          "10": -0.08535253881186487,
          "11": 0.1088612458978041,
          "12": 0.1392494480821324,
          "13": 0.1949935556325575,
          "14": -0.03152124220770691,
          "15": 0.00435114160386868,
          "16": 0.12990881025235815,
          "17": 0.2012687553074723,
          "18": 0.1900839802807852,
          "19": 0.6803370912934887,
          "20": 0.270075232541635,
          "21": -0.26721883393736606,
          "22": 0.2221289099436233,
          "23": -0.015632035883574025,
          "24": -0.1248720311939971,
          "25": 0.12380635327121317,
          "26": 0.10792366335471626,
          "27": -0.002206144339857566,
          "28": -0.1845269522583538,
          "29": 0.12645555257140798,
          "30": 1.9485532364189564,
          "31": 6.5210674147523084,
          "32": 5.768728093780866,
          "33": -0.3857197869882628,
          "34": -2.476039315090936,
          "35": 1.86997234812636,
          "36": 4.418885991478664,
          "37": -0.7896933709121788,
          "38": 2.9626205268408894,
          "39": 1.8719142762059886,
          "40": -1.1483258657080637,
          "41": -0.3386410958920582,
          "42": -0.21484969747661567,
          "43": -1.792802908133316,
          "44": 2.3023518511574363,
          "45": 3.250806268056128,
          "46": 1.3579506382818913,
          "47": 0.7149015222037488,
          "48": 0.6209368939426081,
          "49": 0.25786028563412366,
          "50": -0.21802652076599957,
          "51": 0.10694508805344034,
          "52": 1.029262625482296,
          "53": -0.6949845414873174,
          "54": -0.44632039670390244,
          "55": -8.92820510859679,
          "56": -0.6153074450900415,
          "57": -2.0743351557232854,
          "58": -7.126248334523156,
          "59": 0.35637641618875354,
          "60": -3.8422766913781112,
          "61": -4.149832622034238,
          "62": -2.613086801905737,
          "63": -0.6697271419296568,
          "64": 1.9308826696056538,
          "65": 0.2903621836518899,
          "66": -0.1834114767692043,
          "67": -0.501015974310336,
          "68": 1.5745000827097027,
          "69": -1.6344366638909926,
          "70": -0.48546176132972846,
          "71": -1.0369562660902722,
          "72": 1.487715382062874,
          "73": -0.6516095520321646,
          "74": 0.29374436023945544,
          "75": -1.0646794664098598,
          "76": 0.6966120818793511,
          "77": -1.6197486213232692,
          "78": 0.6501468891312879,
          "79": -0.15375612524696264
        }
      },
      "27": {
        "bias": -0.5228277425351304,
        "weights": {
          "0": 0.5541679585322293,
          "1": 0.20857691804362644,
          "2": -0.30852334943968734,
          "3": 0.6764999459107807,
          "4": -0.19341416305969258,
          "5": 0.03071758268065952,
          "6": 0.032576134686820885,
          "7": -0.12408413047888285,
          "8": 0.17315566911000435,
          "9": 0.08174233187962782,
          "10": -0.13587033891330674,
          "11": -0.04897035841228048,
          "12": -0.19299466875683446,
          "13": 0.1256625186535401,
          "14": -0.032875330900450084,
          "15": -0.11766025612833504,
          "16": -0.19733610283860115,
          "17": 0.12498829965863156,
          "18": -0.14167701706450653,
          "19": 0.6866206008660545,
          "20": 0.4110710949221716,
          "21": 0.060897907232989074,
          "22": 0.1963823380870924,
          "23": 0.009258150468207995,
          "24": -0.2884633226326723,
          "25": -0.18399804362797598,
          "26": 0.11673780075897845,
          "27": -0.17131732228113514,
          "28": -0.054119804934700956,
          "29": -0.07147385138449312,
          "30": 1.5248645174565156,
          "31": 1.6299655904291055,
          "32": 7.41549029261292,
          "33": 1.2974005084462779,
          "34": -2.074022688237118,
          "35": -6.1576190431417706,
          "36": 1.6338504407131014,
          "37": 3.4492047585772125,
          "38": 2.6744826235608197,
          "39": 0.3511046386862102,
          "40": -1.2595452525882294,
          "41": 0.7244461289464914,
          "42": -2.4566655046760517,
          "43": -0.7942967981828429,
          "44": 3.779874768372394,
          "45": 4.82530647829833,
          "46": 1.536193134416644,
          "47": 1.0687814536511948,
          "48": -0.2556902907402959,
          "49": 0.36750757893526287,
          "50": 0.09091325194899644,
          "51": 0.5262617126226022,
          "52": 1.1509980408722056,
          "53": -0.9945940038009108,
          "54": -0.9862031962786998,
          "55": -10.276559218177384,
          "56": -2.8926491407731945,
          "57": -0.8236880948071174,
          "58": -8.79703645082737,
          "59": 1.4269117829799736,
          "60": -0.7906164532037511,
          "61": -5.017343314217588,
          "62": -1.7358849331134352,
          "63": 0.9386925805976168,
          "64": 1.6767625862819984,
          "65": 1.2183952931066444,
          "66": 0.35483314031127555,
          "67": 0.5005490536428454,
          "68": 1.990381091544726,
          "69": -0.9312898474770566,
          "70": 0.14871152577223948,
          "71": -0.42397302128998343,
          "72": 2.4463176568528504,
          "73": -0.5182191716318629,
          "74": -0.028686790723913707,
          "75": -1.421326148427415,
          "76": 1.048937329836908,
          "77": -1.4536683764354124,
          "78": 1.2373710564713074,
          "79": -0.01621825951992474
        }
      },
      "28": {
        "bias": -2.021717752210804,
        "weights": {
          "0": -0.8080250491730706,
          "1": -0.10873349715344038,
          "2": -0.02687481379457716,
          "3": -0.6128000673369509,
          "4": 0.10772584417840574,
          "5": 0.17702285997908557,
          "6": 0.1343709283760764,
          "7": -0.15157690541808133,
          "8": 0.09291284964990743,
          "9": 0.16611579868175802,
          "10": 0.13439477128649324,
          "11": -0.13766283270624546,
          "12": -0.18510125731300342,
          "13": 0.18420223856606982,
          "14": -0.09259019645326011,
          "15": -0.12962545640957995,
          "16": 0.6207794887580782,
          "17": 0.12431917991849194,
          "18": -0.03063520788833355,
          "19": -0.5070103503700052,
          "20": -0.48068842497858866,
          "21": -0.4709553353735334,
          "22": 0.030550166487840688,
          "23": -0.0440211564626967,
          "24": 0.08764850342088826,
          "25": -0.18297891205897604,
          "26": 0.1979541314219185,
          "27": 0.054092231508235736,
          "28": 0.08808612612144592,
          "29": -0.17121399769040363,
          "30": -1.0037397954014085,
          "31": 0.8641650750419597,
          "32": -1.4104647835570439,
          "33": -0.5544751381050164,
          "34": -0.03614274827578835,
          "35": -0.3571484332079944,
          "36": -0.6066767193271664,
          "37": -0.38600916619725534,
          "38": -0.24822473611540685,
          "39": -0.059655036155722777,
          "40": -0.5124615098987195,
          "41": -1.0052087232905687,
          "42": 0.10559682875548031,
          "43": -0.8359616532199917,
          "44": -0.19118946927364897,
          "45": -0.9774608287706233,
          "46": -0.13717744435317394,
          "47": -0.09435091059073294,
          "48": -0.5224437339803222,
          "49": 0.16111197843799915,
          "50": -0.05491089382986416,
          "51": 0.04217315505040861,
          "52": -0.3827486864211933,
          "53": 0.0416874090603245,
          "54": 0.34382492473219545,
          "55": -0.2332688810434551,
          "56": -1.835186688922046,
          "57": 1.0976244295306,
          "58": 2.1423678174872376,
          "59": 1.37894176253163,
          "60": 1.7612549497030054,
          "61": 1.0862262589907696,
          "62": 0.6447131896234447,
          "63": 0.05893261228105075,
          "64": 0.11930161969503598,
          "65": 0.21741537756737098,
          "66": -0.1021631794310765,
          "67": 0.2050828195770651,
          "68": 0.019494983412538955,
          "69": 0.13684887704924956,
          "70": 0.20995363599980466,
          "71": 0.4631699827123578,
          "72": -0.44882418408859037,
          "73": 0.21294433182496586,
          "74": 0.026823758302333314,
          "75": 0.31840362017395374,
          "76": 0.27023740743314545,
          "77": 0.26437296576654035,
          "78": -0.11873603393247248,
          "79": 0.11697382441615986
        }
      },
      "29": {
        "bias": -2.4831731885125787,
        "weights": {
          "0": 0.864803329816735,
          "1": 0.14750429505586093,
          "2": -0.44031428280711715,
          "3": 0.6697392295181478,
          "4": -0.010202822286478478,
          "5": 0.17244732322025147,
          "6": 0.12784845216929125,
          "7": -0.060926369315872364,
          "8": -0.02807267193895796,
          "9": -0.08947625438922238,
          "10": -0.19039305260406103,
          "11": 0.08677840330920938,
          "12": -0.10948035901219555,
          "13": 0.14625826366153477,
          "14": -0.11276012900922634,
          "15": -0.02150659682486858,
          "16": -0.6642247964722602,
          "17": -0.1670800337599775,
          "18": -0.10924807460469357,
          "19": 0.6352722368697414,
          "20": 0.8726730092499987,
          "21": 0.16235805471473613,
          "22": -0.09830981613512253,
          "23": 0.2508769752486748,
          "24": -0.2444614025280525,
          "25": -0.0691052525416916,
          "26": -0.13094047188093177,
          "27": -0.12685370201916482,
          "28": 0.1975942643889179,
          "29": -0.07794566117382898,
          "30": 1.842906276574851,
          "31": -0.9433087243290239,
          "32": -0.14988581538824902,
          "33": -0.1773651127661018,
          "34": 0.7463091764458037,
          "35": -1.820886899523409,
          "36": -0.622595053134133,
          "37": -0.06802729096657498,
          "38": -0.32297285812283305,
          "39": -0.02656185881091854,
          "40": 0.36914686842159544,
          "41": 0.2230739232863879,
          "42": 0.31415638659876205,
          "43": 0.6003796706013247,
          "44": 0.06220605145741829,
          "45": 0.6319545714535818,
          "46": -0.21238291005153442,
          "47": 0.5041525694804291,
          "48": 0.2989201865632325,
          "49": 0.5716973978932168,
          "50": -0.05531579954819572,
          "51": 0.15421489506512373,
          "52": 0.8485422369952286,
          "53": 0.27192624670102417,
          "54": -0.3125139508155128,
          "55": 1.581243347107348,
          "56": 0.8248361593445496,
          "57": -2.182702337340707,
          "58": -1.85090566384547,
          "59": -1.2658264811642432,
          "60": -0.6875617107940332,
          "61": -1.1087536136699991,
          "62": -0.5457636652116546,
          "63": -0.5720679209022314,
          "64": -0.4346435010588479,
          "65": 0.013379264438141351,
          "66": -0.2657966129504533,
          "67": -0.10560081156106717,
          "68": -0.3643366326505106,
          "69": -0.09165101610449239,
          "70": -0.15355253638172942,
          "71": -0.4503272915279709,
          "72": 0.17254632608537368,
          "73": 0.015600340109209007,
          "74": -0.10893261410615285,
          "75": -0.4196168813876346,
          "76": -0.1324617458842586,
          "77": 0.031013699683618782,
          "78": 0.12178104539133901,
          "79": -0.06511817896977302
        }
      },
      "30": {
        "bias": -1.5697029505551414,
        "weights": {
          "0": -0.5706079423159269,
          "1": -0.07756203078361157,
          "2": 0.32725310529326324,
          "3": -0.09259481819592284,
          "4": -0.10505522827918416,
          "5": 0.10252759983783706,
          "6": 0.07384921652998228,
          "7": -0.07828566515547451,
          "8": -0.12197033663254962,
          "9": -0.054938097987263124,
          "10": -0.004411201133147108,
          "11": 0.17354179384027113,
          "12": -0.0242069244150879,
          "13": 0.13321826040691737,
          "14": 0.059430158817141976,
          "15": -0.04003821134480107,
          "16": 0.26952842497288243,
          "17": -0.15699478160951488,
          "18": -0.1671942685124991,
          "19": -0.5465058734438711,
          "20": -0.09370137962684358,
          "21": -0.26530098789803386,
          "22": -0.2088643990630755,
          "23": -0.13811082366401622,
          "24": 0.08618310228141299,
          "25": -0.012037178115372605,
          "26": -0.1906924216183696,
          "27": 0.13969286194657174,
          "28": -0.16751074258383192,
          "29": 0.118939383271949,
          "30": -0.16741599105431856,
          "31": 1.2903854440413094,
          "32": -1.2594669605878188,
          "33": -0.3013370537609475,
          "34": -1.2960940963171899,
          "35": -0.3398317599320373,
          "36": -0.7902110417958454,
          "37": 0.488738832820551,
          "38": -0.42976341169353716,
          "39": -0.36992965440134157,
          "40": -0.7244779494001203,
          "41": -0.6109924399057226,
          "42": 0.2147486171175426,
          "43": -0.4310916549797585,
          "44": 0.12378874774286668,
          "45": -0.18680266784959368,
          "46": -0.1452566208301467,
          "47": 0.269094401357758,
          "48": -0.36243763462336687,
          "49": -0.22508876731577226,
          "50": -0.4670465478358843,
          "51": 0.1561538723146569,
          "52": -0.48507786729801816,
          "53": 0.08540361436286249,
          "54": 0.4092256881140828,
          "55": -1.9179459216695673,
          "56": -3.971123054951835,
          "57": -0.2501262886453008,
          "58": 0.6273216100925136,
          "59": 0.1851730952588647,
          "60": 1.3705401162287694,
          "61": 1.6780132843446176,
          "62": 0.9462401444813371,
          "63": 1.6331693517816601,
          "64": 0.5944610386977662,
          "65": 0.08158564809745002,
          "66": 0.23628782324493156,
          "67": 1.0413235829281535,
          "68": 0.2999681409707506,
          "69": 0.5406866447604463,
          "70": 0.2575080421084541,
          "71": 0.767748453833656,
          "72": -0.31475858580033145,
          "73": 0.16133597893045656,
          "74": -0.2679657763407344,
          "75": 0.3554769557577241,
          "76": 0.09018811731118971,
          "77": 0.4324451492411307,
          "78": -0.2007683772648524,
          "79": 0.1156561308647086
        }
      },
      "31": {
        "bias": -1.9262663441559444,
        "weights": {
          "0": 2.077539421551389,
          "1": 0.5939058367972047,
          "2": -1.5142091208019919,
          "3": 1.2590160554429581,
          "4": -0.16825948771675944,
          "5": -0.0325295840110849,
          "6": 0.04191085959422,
          "7": -0.05379103875966082,
          "8": -0.06444055679365279,
          "9": 0.023374728379280174,
          "10": -0.11418290238866434,
          "11": 0.14410377418265619,
          "12": 0.162374150839581,
          "13": -0.18274120880326433,
          "14": -0.08416109639416121,
          "15": -0.16412469294335832,
          "16": -0.6692405927978777,
          "17": 0.012154737955761344,
          "18": 0.15180256807689949,
          "19": 1.653716252088966,
          "20": 1.0045123429806924,
          "21": 0.4075102517408791,
          "22": -0.1431426806356442,
          "23": 0.17536419950784232,
          "24": -0.6918243284416143,
          "25": 0.10660736395128141,
          "26": -0.10584779890857247,
          "27": 0.0010024650512028043,
          "28": 0.0715076478599301,
          "29": 0.054356590565061064,
          "30": -2.1417299643715224,
          "31": 8.85953577035108,
          "32": 3.37326046238496,
          "33": -0.17392017490774658,
          "34": 5.527436757510199,
          "35": -0.10198887572647342,
          "36": -0.6588124400165479,
          "37": -0.3723662410963,
          "38": 0.20638093554711245,
          "39": 1.9637108467974123,
          "40": -2.1342089689614903,
          "41": -0.25350178367888776,
          "42": 2.2703005687109634,
          "43": -0.03743396518106646,
          "44": -1.518553485624687,
          "45": 1.316027511214964,
          "46": -0.9550760295603228,
          "47": -0.4058011399088286,
          "48": 1.655447697043103,
          "49": 1.4734843649423124,
          "50": 0.8626406070377861,
          "51": 0.6625288058815634,
          "52": 2.0092474344377207,
          "53": 0.47505561704731264,
          "54": -0.7321741631856777,
          "55": 6.793948890923391,
          "56": 3.2578873542517344,
          "57": -8.492792045800103,
          "58": -2.7176423178214755,
          "59": -2.915621571572443,
          "60": -3.195260360594306,
          "61": -1.9291283665320145,
          "62": -1.67020405023575,
          "63": -2.44821371507636,
          "64": -1.6600967003840843,
          "65": -1.4085316063580788,
          "66": -1.5602172848529157,
          "67": -1.2868077649581353,
          "68": -1.2019126909370892,
          "69": -1.5089845466657668,
          "70": -0.12112992721015338,
          "71": -2.3535125947547098,
          "72": 0.34297556361820897,
          "73": -0.7501115933166462,
          "74": 0.0690515652209881,
          "75": -0.9317791907649119,
          "76": -0.3536913319472691,
          "77": -1.4011000440301609,
          "78": -0.05868719102263752,
          "79": -0.26384064251686035
        }
      },
      "32": {
        "bias": -2.144522028304399,
        "weights": {
          "0": -0.46771776563196565,
          "1": -0.1726518563209703,
          "2": 0.2137105631117972,
          "3": -0.3682587433029785,
          "4": 0.1872698002169475,
          "5": -0.09182510491328161,
          "6": 0.07500600172612887,
          "7": 0.06499100867794372,
          "8": 0.030228428451109235,
          "9": -0.18414655224196377,
          "10": 0.05381221520051077,
          "11": 0.03283271656250025,
          "12": 0.13429914798037085,
          "13": -0.15938277971943454,
          "14": -0.03355527728098667,
          "15": 0.17127649210280183,
          "16": 0.13364511456463418,
          "17": -0.14288521534975002,
          "18": 0.06002508711315628,
          "19": -0.3182609369882537,
          "20": -0.37943628456243,
          "21": 0.015260871030156501,
          "22": 0.16586656066517846,
          "23": -0.26113926105059043,
          "24": -0.029097396440390385,
          "25": 0.04931579549661104,
          "26": -0.08838586292859636,
          "27": 0.1793888529091525,
          "28": -0.1281428366504029,
          "29": 0.1304463482678246,
          "30": -0.26544231868941204,
          "31": -0.0173965729150054,
          "32": -0.990880779205929,
          "33": -0.9644207358206638,
          "34": -0.749091894099906,
          "35": -0.3778088202559656,
          "36": -0.6039490108206294,
          "37": -0.04470884349736496,
